FANN_FLO_2.1
num_layers=3
learning_rate=0.700000
connection_rate=1.000000
network_type=0
learning_momentum=0.000000
training_algorithm=2
train_error_function=1
train_stop_function=0
cascade_output_change_fraction=0.010000
quickprop_decay=-0.000100
quickprop_mu=1.750000
rprop_increase_factor=1.200000
rprop_decrease_factor=0.500000
rprop_delta_min=0.000000
rprop_delta_max=50.000000
rprop_delta_zero=0.100000
cascade_output_stagnation_epochs=12
cascade_candidate_change_fraction=0.010000
cascade_candidate_stagnation_epochs=12
cascade_max_out_epochs=150
cascade_min_out_epochs=50
cascade_max_cand_epochs=150
cascade_min_cand_epochs=50
cascade_num_candidate_groups=2
bit_fail_limit=3.49999994039535522461e-01
cascade_candidate_limit=1.00000000000000000000e+03
cascade_weight_multiplier=4.00000005960464477539e-01
cascade_activation_functions_count=10
cascade_activation_functions=3 5 7 8 10 11 14 15 16 17 
cascade_activation_steepnesses_count=4
cascade_activation_steepnesses=2.50000000000000000000e-01 5.00000000000000000000e-01 7.50000000000000000000e-01 1.00000000000000000000e+00 
layer_sizes=51 101 3 
scale_included=0
neurons (num_inputs, activation_function, activation_steepness)=(0, 0, 0.00000000000000000000e+00) (0, 0, 0.00000000000000000000e+00) (0, 0, 0.00000000000000000000e+00) (0, 0, 0.00000000000000000000e+00) (0, 0, 0.00000000000000000000e+00) (0, 0, 0.00000000000000000000e+00) (0, 0, 0.00000000000000000000e+00) (0, 0, 0.00000000000000000000e+00) (0, 0, 0.00000000000000000000e+00) (0, 0, 0.00000000000000000000e+00) (0, 0, 0.00000000000000000000e+00) (0, 0, 0.00000000000000000000e+00) (0, 0, 0.00000000000000000000e+00) (0, 0, 0.00000000000000000000e+00) (0, 0, 0.00000000000000000000e+00) (0, 0, 0.00000000000000000000e+00) (0, 0, 0.00000000000000000000e+00) (0, 0, 0.00000000000000000000e+00) (0, 0, 0.00000000000000000000e+00) (0, 0, 0.00000000000000000000e+00) (0, 0, 0.00000000000000000000e+00) (0, 0, 0.00000000000000000000e+00) (0, 0, 0.00000000000000000000e+00) (0, 0, 0.00000000000000000000e+00) (0, 0, 0.00000000000000000000e+00) (0, 0, 0.00000000000000000000e+00) (0, 0, 0.00000000000000000000e+00) (0, 0, 0.00000000000000000000e+00) (0, 0, 0.00000000000000000000e+00) (0, 0, 0.00000000000000000000e+00) (0, 0, 0.00000000000000000000e+00) (0, 0, 0.00000000000000000000e+00) (0, 0, 0.00000000000000000000e+00) (0, 0, 0.00000000000000000000e+00) (0, 0, 0.00000000000000000000e+00) (0, 0, 0.00000000000000000000e+00) (0, 0, 0.00000000000000000000e+00) (0, 0, 0.00000000000000000000e+00) (0, 0, 0.00000000000000000000e+00) (0, 0, 0.00000000000000000000e+00) (0, 0, 0.00000000000000000000e+00) (0, 0, 0.00000000000000000000e+00) (0, 0, 0.00000000000000000000e+00) (0, 0, 0.00000000000000000000e+00) (0, 0, 0.00000000000000000000e+00) (0, 0, 0.00000000000000000000e+00) (0, 0, 0.00000000000000000000e+00) (0, 0, 0.00000000000000000000e+00) (0, 0, 0.00000000000000000000e+00) (0, 0, 0.00000000000000000000e+00) (0, 0, 0.00000000000000000000e+00) (51, 5, 5.00000000000000000000e-01) (51, 5, 5.00000000000000000000e-01) (51, 5, 5.00000000000000000000e-01) (51, 5, 5.00000000000000000000e-01) (51, 5, 5.00000000000000000000e-01) (51, 5, 5.00000000000000000000e-01) (51, 5, 5.00000000000000000000e-01) (51, 5, 5.00000000000000000000e-01) (51, 5, 5.00000000000000000000e-01) (51, 5, 5.00000000000000000000e-01) (51, 5, 5.00000000000000000000e-01) (51, 5, 5.00000000000000000000e-01) (51, 5, 5.00000000000000000000e-01) (51, 5, 5.00000000000000000000e-01) (51, 5, 5.00000000000000000000e-01) (51, 5, 5.00000000000000000000e-01) (51, 5, 5.00000000000000000000e-01) (51, 5, 5.00000000000000000000e-01) (51, 5, 5.00000000000000000000e-01) (51, 5, 5.00000000000000000000e-01) (51, 5, 5.00000000000000000000e-01) (51, 5, 5.00000000000000000000e-01) (51, 5, 5.00000000000000000000e-01) (51, 5, 5.00000000000000000000e-01) (51, 5, 5.00000000000000000000e-01) (51, 5, 5.00000000000000000000e-01) (51, 5, 5.00000000000000000000e-01) (51, 5, 5.00000000000000000000e-01) (51, 5, 5.00000000000000000000e-01) (51, 5, 5.00000000000000000000e-01) (51, 5, 5.00000000000000000000e-01) (51, 5, 5.00000000000000000000e-01) (51, 5, 5.00000000000000000000e-01) (51, 5, 5.00000000000000000000e-01) (51, 5, 5.00000000000000000000e-01) (51, 5, 5.00000000000000000000e-01) (51, 5, 5.00000000000000000000e-01) (51, 5, 5.00000000000000000000e-01) (51, 5, 5.00000000000000000000e-01) (51, 5, 5.00000000000000000000e-01) (51, 5, 5.00000000000000000000e-01) (51, 5, 5.00000000000000000000e-01) (51, 5, 5.00000000000000000000e-01) (51, 5, 5.00000000000000000000e-01) (51, 5, 5.00000000000000000000e-01) (51, 5, 5.00000000000000000000e-01) (51, 5, 5.00000000000000000000e-01) (51, 5, 5.00000000000000000000e-01) (51, 5, 5.00000000000000000000e-01) (51, 5, 5.00000000000000000000e-01) (51, 5, 5.00000000000000000000e-01) (51, 5, 5.00000000000000000000e-01) (51, 5, 5.00000000000000000000e-01) (51, 5, 5.00000000000000000000e-01) (51, 5, 5.00000000000000000000e-01) (51, 5, 5.00000000000000000000e-01) (51, 5, 5.00000000000000000000e-01) (51, 5, 5.00000000000000000000e-01) (51, 5, 5.00000000000000000000e-01) (51, 5, 5.00000000000000000000e-01) (51, 5, 5.00000000000000000000e-01) (51, 5, 5.00000000000000000000e-01) (51, 5, 5.00000000000000000000e-01) (51, 5, 5.00000000000000000000e-01) (51, 5, 5.00000000000000000000e-01) (51, 5, 5.00000000000000000000e-01) (51, 5, 5.00000000000000000000e-01) (51, 5, 5.00000000000000000000e-01) (51, 5, 5.00000000000000000000e-01) (51, 5, 5.00000000000000000000e-01) (51, 5, 5.00000000000000000000e-01) (51, 5, 5.00000000000000000000e-01) (51, 5, 5.00000000000000000000e-01) (51, 5, 5.00000000000000000000e-01) (51, 5, 5.00000000000000000000e-01) (51, 5, 5.00000000000000000000e-01) (51, 5, 5.00000000000000000000e-01) (51, 5, 5.00000000000000000000e-01) (51, 5, 5.00000000000000000000e-01) (51, 5, 5.00000000000000000000e-01) (51, 5, 5.00000000000000000000e-01) (51, 5, 5.00000000000000000000e-01) (51, 5, 5.00000000000000000000e-01) (51, 5, 5.00000000000000000000e-01) (51, 5, 5.00000000000000000000e-01) (51, 5, 5.00000000000000000000e-01) (51, 5, 5.00000000000000000000e-01) (51, 5, 5.00000000000000000000e-01) (51, 5, 5.00000000000000000000e-01) (51, 5, 5.00000000000000000000e-01) (51, 5, 5.00000000000000000000e-01) (51, 5, 5.00000000000000000000e-01) (51, 5, 5.00000000000000000000e-01) (51, 5, 5.00000000000000000000e-01) (51, 5, 5.00000000000000000000e-01) (51, 5, 5.00000000000000000000e-01) (51, 5, 5.00000000000000000000e-01) (51, 5, 5.00000000000000000000e-01) (51, 5, 5.00000000000000000000e-01) (51, 5, 5.00000000000000000000e-01) (0, 5, 0.00000000000000000000e+00) (101, 5, 5.00000000000000000000e-01) (101, 5, 5.00000000000000000000e-01) (0, 5, 0.00000000000000000000e+00) 
connections (connected_to_neuron, weight)=(0, 2.40920037031173706055e-01) (1, 2.78804421424865722656e-01) (2, 1.77470371127128601074e-01) (3, 1.55432522296905517578e-01) (4, 2.36671969294548034668e-01) (5, 1.47625446319580078125e-01) (6, 1.29547387361526489258e-01) (7, 1.94593399763107299805e-01) (8, 1.89998030662536621094e-01) (9, 1.85836330056190490723e-01) (10, 1.73390150070190429688e-01) (11, 1.32797464728355407715e-01) (12, 2.73989289999008178711e-01) (13, 8.13004374504089355469e-02) (14, 2.57120221853256225586e-01) (15, 7.18427076935768127441e-02) (16, 2.51544654369354248047e-01) (17, 7.25556164979934692383e-02) (18, 2.41300851106643676758e-01) (19, 2.21594646573066711426e-01) (20, 2.37095698714256286621e-01) (21, 2.44041875004768371582e-01) (22, 1.55670568346977233887e-01) (23, 2.74818271398544311523e-01) (24, 2.58386224508285522461e-01) (25, 1.40236854553222656250e-01) (26, 1.26712799072265625000e-01) (27, 2.05986395478248596191e-01) (28, 1.94472551345825195312e-01) (29, 1.44215434789657592773e-01) (30, 2.39295467734336853027e-01) (31, 1.63220390677452087402e-01) (32, 2.98740535974502563477e-01) (33, 2.83250063657760620117e-01) (34, 2.00690910220146179199e-01) (35, 2.70672976970672607422e-01) (36, 1.59861177206039428711e-01) (37, 2.47122466564178466797e-01) (38, 2.25917443633079528809e-01) (39, 3.13866496086120605469e-01) (40, 1.97219416499137878418e-01) (41, 3.20204287767410278320e-01) (42, 3.69480997323989868164e-01) (43, 1.86022326350212097168e-01) (44, 3.21834594011306762695e-01) (45, 3.66735756397247314453e-01) (46, 1.87031194567680358887e-01) (47, 3.02120238542556762695e-01) (48, 3.65045934915542602539e-01) (49, 3.61353307962417602539e-01) (50, 1.79764017462730407715e-01) (0, 1.40822088718414306641e+00) (1, 1.20386207103729248047e+00) (2, 1.31243705749511718750e+00) (3, 1.20639038085937500000e+00) (4, 8.42509865760803222656e-01) (5, 6.66777849197387695312e-01) (6, 8.43841612339019775391e-01) (7, 6.87240660190582275391e-01) (8, 7.47576951980590820312e-01) (9, 6.69711589813232421875e-01) (10, 8.36672902107238769531e-01) (11, 8.93299579620361328125e-01) (12, 6.62489533424377441406e-01) (13, 7.86424875259399414062e-01) (14, 7.97827363014221191406e-01) (15, 9.15782034397125244141e-01) (16, 7.19649851322174072266e-01) (17, 9.16581690311431884766e-01) (18, 6.76365375518798828125e-01) (19, 5.21162807941436767578e-01) (20, 4.09737557172775268555e-01) (21, 6.64880514144897460938e-01) (22, 7.58405447006225585938e-01) (23, 1.34210908412933349609e+00) (24, 2.26297950744628906250e+00) (25, 1.96532213687896728516e+00) (26, 1.14756784439086914062e+01) (27, 6.77983522415161132812e+00) (28, 1.08978981018066406250e+02) (29, 1.09113998413085937500e+02) (30, 3.02360351562500000000e+02) (31, 7.95340942382812500000e+02) (32, 8.18138656616210937500e+01) (33, 2.87201873779296875000e+02) (34, 1.83275375366210937500e+02) (35, 6.10427932739257812500e+01) (36, 2.93298950195312500000e+01) (37, 2.89191009521484375000e+02) (38, 1.70567264556884765625e+01) (39, 6.77074849605560302734e-01) (40, 5.75430870056152343750e+00) (41, 9.32088315486907958984e-01) (42, 7.99598693847656250000e-01) (43, 7.65297949314117431641e-01) (44, 4.02308702468872070312e+00) (45, 1.34901657700538635254e-01) (46, 5.80673962831497192383e-02) (47, 2.11903288960456848145e-01) (48, 8.82862567901611328125e-01) (49, -5.06962478160858154297e-01) (50, 5.99299659729003906250e+01) (0, 1.32635116577148437500e+00) (1, 6.74345493316650390625e-01) (2, 4.27798271179199218750e+01) (3, 6.94603919982910156250e-01) (4, 7.66691267490386962891e-01) (5, 3.69499397277832031250e+01) (6, 2.49251770973205566406e+00) (7, 5.51543693542480468750e+01) (8, 5.60903251171112060547e-01) (9, 6.82373702526092529297e-01) (10, 8.97391915321350097656e-01) (11, 7.43671722412109375000e+01) (12, 9.24007713794708251953e-01) (13, 3.91951769590377807617e-01) (14, 7.28723373413085937500e+01) (15, 1.29748062133789062500e+02) (16, 5.60268402099609375000e+00) (17, 2.16275811195373535156e+00) (18, 5.55324673652648925781e-01) (19, 1.22402703762054443359e+00) (20, 6.96001338958740234375e+00) (21, 3.50926666259765625000e+01) (22, 1.13432157039642333984e+00) (23, 3.41688603162765502930e-01) (24, 2.50360578298568725586e-01) (25, 3.43499511480331420898e-01) (26, 3.41825485229492187500e-01) (27, 3.63375246524810791016e-01) (28, 2.62515693902969360352e-01) (29, 4.29312527179718017578e-01) (30, 4.02653247117996215820e-01) (31, 4.53029781579971313477e-01) (32, 2.45771855115890502930e-01) (33, 2.62971013784408569336e-01) (34, 1.58380568027496337891e-01) (35, 2.70601630210876464844e-01) (36, 2.96671062707901000977e-01) (37, 3.00211250782012939453e-01) (38, 2.45332658290863037109e-01) (39, 2.71311908960342407227e-01) (40, 2.53400951623916625977e-01) (41, 1.52120605111122131348e-01) (42, 1.36191189289093017578e-01) (43, 1.88798725605010986328e-01) (44, 1.71597093343734741211e-01) (45, -2.84736961126327514648e-01) (46, 1.06404483318328857422e-01) (47, 1.78384721279144287109e-01) (48, 5.03392964601516723633e-02) (49, -1.81709840893745422363e-01) (50, 6.60706400871276855469e-01) (0, 1.00484943389892578125e+00) (1, 7.46214270591735839844e-01) (2, 8.87429594993591308594e-01) (3, 7.40738570690155029297e-01) (4, 3.95656108856201171875e-01) (5, 4.31319206953048706055e-01) (6, 4.46671068668365478516e-01) (7, 3.27038317918777465820e-01) (8, 4.55624431371688842773e-01) (9, 4.30506199598312377930e-01) (10, 4.64959353208541870117e-01) (11, 3.52890253067016601562e-01) (12, 4.26975965499877929688e-01) (13, 3.56065332889556884766e-01) (14, 3.56242686510086059570e-01) (15, 3.70202422142028808594e-01) (16, 3.39329689741134643555e-01) (17, 3.30182075500488281250e-01) (18, 4.80769246816635131836e-01) (19, 2.93480873107910156250e-01) (20, 4.59864020347595214844e-01) (21, 3.24971437454223632812e-01) (22, 6.95800781250000000000e-01) (23, 7.02792882919311523438e-01) (24, 7.45823323726654052734e-01) (25, 8.00618827342987060547e-01) (26, 8.24285089969635009766e-01) (27, 7.30119049549102783203e-01) (28, 8.21110129356384277344e-01) (29, 7.65518724918365478516e-01) (30, 7.35148429870605468750e-01) (31, 8.37021231651306152344e-01) (32, 8.48820984363555908203e-01) (33, 7.53633737564086914062e-01) (34, 8.92288625240325927734e-01) (35, 8.97592127323150634766e-01) (36, 8.79355072975158691406e-01) (37, 8.41500699520111083984e-01) (38, 9.42618608474731445312e-01) (39, 8.80113005638122558594e-01) (40, 9.59699690341949462891e-01) (41, 9.06541287899017333984e-01) (42, 8.82291078567504882812e-01) (43, 9.52952325344085693359e-01) (44, 8.87340664863586425781e-01) (45, 1.04311990737915039062e+00) (46, 1.06326651573181152344e+00) (47, 1.00976002216339111328e+00) (48, 1.07422411441802978516e+00) (49, 1.05925691127777099609e+00) (50, 7.68181562423706054688e-01) (0, 9.18996930122375488281e-01) (1, 7.13748633861541748047e-01) (2, 8.25177490711212158203e-01) (3, 8.92773568630218505859e-01) (4, 7.90583908557891845703e-01) (5, 9.12297010421752929688e-01) (6, 8.46521377563476562500e-01) (7, 8.49994897842407226562e-01) (8, 8.55564415454864501953e-01) (9, 9.17161166667938232422e-01) (10, 8.61598670482635498047e-01) (11, 7.55448281764984130859e-01) (12, 8.05921673774719238281e-01) (13, 8.50315928459167480469e-01) (14, 8.76218676567077636719e-01) (15, 7.79184460639953613281e-01) (16, 7.77205288410186767578e-01) (17, 7.57309854030609130859e-01) (18, 7.44800567626953125000e-01) (19, 8.09587597846984863281e-01) (20, 7.35932826995849609375e-01) (21, 6.85144305229187011719e-01) (22, 7.10031628608703613281e-01) (23, 8.49436461925506591797e-01) (24, 6.95018529891967773438e-01) (25, 8.82240653038024902344e-01) (26, 8.50599467754364013672e-01) (27, 7.51516759395599365234e-01) (28, 8.91786098480224609375e-01) (29, 8.42125952243804931641e-01) (30, 8.25639128684997558594e-01) (31, 8.60519945621490478516e-01) (32, 8.61671924591064453125e-01) (33, 9.08749282360076904297e-01) (34, 8.52831184864044189453e-01) (35, 7.32923448085784912109e-01) (36, 8.98449838161468505859e-01) (37, 7.72400259971618652344e-01) (38, 8.55777204036712646484e-01) (39, 8.38179409503936767578e-01) (40, 7.64631271362304687500e-01) (41, 8.01950335502624511719e-01) (42, 8.76159071922302246094e-01) (43, 8.53923261165618896484e-01) (44, 7.51078069210052490234e-01) (45, 8.81968379020690917969e-01) (46, 8.16000998020172119141e-01) (47, 9.17962849140167236328e-01) (48, 1.00755691528320312500e+00) (49, 8.78281474113464355469e-01) (50, 7.36943542957305908203e-01) (0, -1.38624325394630432129e-01) (1, 2.25298583507537841797e-01) (2, 2.32686147093772888184e-01) (3, 1.72134444117546081543e-01) (4, 2.79762029647827148438e-01) (5, 2.68416821956634521484e-01) (6, 3.81227493286132812500e-01) (7, 3.26180130243301391602e-01) (8, -1.57486662268638610840e-01) (9, -1.02051794528961181641e-01) (10, -1.44341632723808288574e-01) (11, 3.97888809442520141602e-01) (12, -1.29156067967414855957e-01) (13, 2.63633280992507934570e-01) (14, 3.48374933004379272461e-01) (15, 2.92052805423736572266e-01) (16, 2.53561466932296752930e-01) (17, 3.95273447036743164062e-01) (18, 2.40298315882682800293e-01) (19, 3.70176404714584350586e-01) (20, 2.25481167435646057129e-01) (21, 2.99475669860839843750e-01) (22, 3.14252257347106933594e-01) (23, 3.54828655719757080078e-01) (24, 3.13837498426437377930e-01) (25, 2.33741983771324157715e-01) (26, 3.38773727416992187500e-01) (27, 2.13753774762153625488e-01) (28, 2.16625928878784179688e-01) (29, 3.93438160419464111328e-01) (30, 2.37588137388229370117e-01) (31, 2.51454651355743408203e-01) (32, 2.46700391173362731934e-01) (33, 2.98278480768203735352e-01) (34, 2.63876020908355712891e-01) (35, 3.24878782033920288086e-01) (36, 3.72658848762512207031e-01) (37, 2.41148710250854492188e-01) (38, 2.30601251125335693359e-01) (39, 1.86333477497100830078e-01) (40, 3.45801472663879394531e-01) (41, 2.87752896547317504883e-01) (42, 1.74956247210502624512e-01) (43, 1.88708290457725524902e-01) (44, 3.12514930963516235352e-01) (45, 2.96826779842376708984e-01) (46, 2.66348004341125488281e-01) (47, 3.44086259603500366211e-01) (48, 2.29960441589355468750e-01) (49, 2.26703345775604248047e-01) (50, 3.16575825214385986328e-01) (0, 1.78234532475471496582e-01) (1, 2.76577353477478027344e-01) (2, 3.14300298690795898438e-01) (3, 1.31601482629776000977e-01) (4, 1.68342635035514831543e-01) (5, 1.15992568433284759521e-01) (6, 2.23290309309959411621e-01) (7, 1.88499584794044494629e-01) (8, 1.48138165473937988281e-01) (9, 2.29192584753036499023e-01) (10, 1.86429068446159362793e-01) (11, 1.59908652305603027344e-01) (12, 2.66816824674606323242e-01) (13, 7.99514800310134887695e-02) (14, 2.44837060570716857910e-01) (15, 2.05311685800552368164e-01) (16, 2.67452567815780639648e-01) (17, 1.01202405989170074463e-01) (18, 2.53271073102951049805e-01) (19, 2.73440003395080566406e-01) (20, 2.57467299699783325195e-01) (21, 1.57916232943534851074e-01) (22, 2.84117430448532104492e-01) (23, 2.70158678293228149414e-01) (24, 1.05861157178878784180e-01) (25, 2.13959798216819763184e-01) (26, 1.69922903180122375488e-01) (27, 2.73010641336441040039e-01) (28, 1.13565042614936828613e-01) (29, 2.69559681415557861328e-01) (30, 1.93215116858482360840e-01) (31, 2.17315003275871276855e-01) (32, 2.57873475551605224609e-01) (33, 1.98065087199211120605e-01) (34, 2.57352918386459350586e-01) (35, 1.27863571047782897949e-01) (36, 2.12460428476333618164e-01) (37, 2.00215324759483337402e-01) (38, 1.92383497953414916992e-01) (39, 2.45692908763885498047e-01) (40, 1.42813816666603088379e-01) (41, 3.04882436990737915039e-01) (42, 1.29301011562347412109e-01) (43, 1.64378151297569274902e-01) (44, 3.43754857778549194336e-01) (45, 3.18375408649444580078e-01) (46, 2.75618731975555419922e-01) (47, 3.23558658361434936523e-01) (48, 3.31737548112869262695e-01) (49, 2.47389554977416992188e-01) (50, 2.59718030691146850586e-01) (0, 2.20295771956443786621e-01) (1, 3.11219573020935058594e-01) (2, 3.04590731859207153320e-01) (3, 3.03450614213943481445e-01) (4, 2.58772075176239013672e-01) (5, 1.65566682815551757812e-01) (6, 1.05295643210411071777e-01) (7, 2.53693431615829467773e-01) (8, 1.97334721684455871582e-01) (9, 2.98896968364715576172e-01) (10, 1.39825299382209777832e-01) (11, 9.78261753916740417480e-02) (12, 2.21494004130363464355e-01) (13, 2.11645275354385375977e-01) (14, 2.12545230984687805176e-01) (15, 2.14023977518081665039e-01) (16, 1.05205804109573364258e-01) (17, 1.01041086018085479736e-01) (18, 9.28510129451751708984e-02) (19, 2.27632343769073486328e-01) (20, 1.18578277528285980225e-01) (21, 7.71111026406288146973e-02) (22, 2.43652701377868652344e-01) (23, 1.33266448974609375000e-01) (24, 8.75457748770713806152e-02) (25, 2.24594086408615112305e-01) (26, 2.67414301633834838867e-01) (27, 2.62283176183700561523e-01) (28, 2.20897167921066284180e-01) (29, 1.81604146957397460938e-01) (30, 2.41525292396545410156e-01) (31, 1.82131245732307434082e-01) (32, 1.62064075469970703125e-01) (33, 2.55199670791625976562e-01) (34, 1.95158332586288452148e-01) (35, 2.00341314077377319336e-01) (36, 3.60607713460922241211e-01) (37, 2.11950674653053283691e-01) (38, 3.70365083217620849609e-01) (39, 2.79452890157699584961e-01) (40, 2.24530234932899475098e-01) (41, 2.18736559152603149414e-01) (42, 2.79144436120986938477e-01) (43, 3.59625339508056640625e-01) (44, 3.57778489589691162109e-01) (45, 2.37860694527626037598e-01) (46, 2.97523260116577148438e-01) (47, 1.91113576292991638184e-01) (48, 2.64595955610275268555e-01) (49, 3.24304878711700439453e-01) (50, 2.68112719058990478516e-01) (0, 2.24902674555778503418e-01) (1, 3.06742548942565917969e-01) (2, 3.03175836801528930664e-01) (3, 1.63592934608459472656e-01) (4, 2.48277351260185241699e-01) (5, 1.87739506363868713379e-01) (6, 8.73798578977584838867e-02) (7, 2.45942607522010803223e-01) (8, 1.29833534359931945801e-01) (9, 1.92691013216972351074e-01) (10, 1.84201359748840332031e-01) (11, 1.86572566628456115723e-01) (12, 2.34404295682907104492e-01) (13, 8.57031270861625671387e-02) (14, 1.95768952369689941406e-01) (15, 2.46354386210441589355e-01) (16, 7.98957571387290954590e-02) (17, 2.53138512372970581055e-01) (18, 2.50220477581024169922e-01) (19, 1.76342785358428955078e-01) (20, 9.28389951586723327637e-02) (21, 1.00531138479709625244e-01) (22, 9.91308912634849548340e-02) (23, 1.00348658859729766846e-01) (24, 1.19367346167564392090e-01) (25, 1.93375170230865478516e-01) (26, 2.38568991422653198242e-01) (27, 1.36847123503684997559e-01) (28, 2.87882298231124877930e-01) (29, 1.94000363349914550781e-01) (30, 1.31041780114173889160e-01) (31, 2.41163849830627441406e-01) (32, 1.77338182926177978516e-01) (33, 3.01336318254470825195e-01) (34, 2.86067217588424682617e-01) (35, 1.60024657845497131348e-01) (36, 2.19160482287406921387e-01) (37, 3.38533997535705566406e-01) (38, 3.67136985063552856445e-01) (39, 3.12207907438278198242e-01) (40, 2.46416941285133361816e-01) (41, 2.72178411483764648438e-01) (42, 2.22722828388214111328e-01) (43, 1.95697143673896789551e-01) (44, 2.77699828147888183594e-01) (45, 3.58201920986175537109e-01) (46, 3.71287167072296142578e-01) (47, 2.85953879356384277344e-01) (48, 3.37031781673431396484e-01) (49, 3.56192767620086669922e-01) (50, 1.18812046945095062256e-01) (0, 1.42227399349212646484e+00) (1, 6.58270776271820068359e-01) (2, 1.89159679412841796875e+01) (3, 5.91264367103576660156e-01) (4, 7.14116275310516357422e-01) (5, 4.12046508789062500000e+01) (6, 3.31297802925109863281e+00) (7, 2.33563957214355468750e+01) (8, 5.32088518142700195312e-01) (9, 6.69079482555389404297e-01) (10, 1.41556441783905029297e+00) (11, 7.49205627441406250000e+01) (12, 2.32747817039489746094e+00) (13, 4.91188794374465942383e-01) (14, 7.26988906860351562500e+01) (15, 1.29580596923828125000e+02) (16, 1.84659481048583984375e+01) (17, 4.22811365127563476562e+00) (18, 5.04915177822113037109e-01) (19, 1.24303555488586425781e+00) (20, 5.37288780212402343750e+01) (21, 5.36743888854980468750e+01) (22, 1.50431692600250244141e+00) (23, 4.23439502716064453125e-01) (24, 3.64768087863922119141e-01) (25, 3.97357732057571411133e-01) (26, 3.49540561437606811523e-01) (27, 2.99293607473373413086e-01) (28, 3.91209721565246582031e-01) (29, 3.44259172677993774414e-01) (30, 3.39542955160140991211e-01) (31, 4.79849547147750854492e-01) (32, 3.49751234054565429688e-01) (33, 3.59862744808197021484e-01) (34, 2.75934606790542602539e-01) (35, 2.71360307931900024414e-01) (36, 2.16575890779495239258e-01) (37, 2.30282112956047058105e-01) (38, 1.52652606368064880371e-01) (39, 1.64997279644012451172e-01) (40, 2.74776458740234375000e-01) (41, 2.72810906171798706055e-01) (42, 2.68703579902648925781e-01) (43, 1.86073318123817443848e-01) (44, 1.92804753780364990234e-01) (45, -3.23753710836172103882e-03) (46, 7.68693676218390464783e-03) (47, 7.22728818655014038086e-02) (48, 6.79201111197471618652e-02) (49, -1.37457773089408874512e-01) (50, 5.16406774520874023438e-01) (0, -1.90524145960807800293e-01) (1, 2.14848928153514862061e-02) (2, -1.48127958178520202637e-01) (3, -1.43288686871528625488e-01) (4, 6.78336024284362792969e-02) (5, 1.13098286092281341553e-01) (6, 5.87616600096225738525e-02) (7, 1.18040457367897033691e-01) (8, 6.32579773664474487305e-02) (9, -2.42211148142814636230e-02) (10, 1.22801335528492927551e-02) (11, -1.77215747535228729248e-02) (12, 7.99763128161430358887e-02) (13, -3.85791994631290435791e-02) (14, 1.20849162340164184570e-01) (15, 3.93128115683794021606e-03) (16, 4.86376993358135223389e-02) (17, 1.84641145169734954834e-02) (18, 4.48630638420581817627e-02) (19, 8.47980827093124389648e-02) (20, -4.44389693439006805420e-02) (21, -1.55787849798798561096e-02) (22, 4.10840250551700592041e-02) (23, -7.96864330768585205078e-02) (24, -3.91042307019233703613e-02) (25, -4.95057627558708190918e-02) (26, -5.70930577814579010010e-02) (27, 3.83663550019264221191e-02) (28, 2.28312406688928604126e-02) (29, -4.60940971970558166504e-02) (30, -7.16804638504981994629e-02) (31, -7.80508071184158325195e-02) (32, -1.90834477543830871582e-02) (33, -7.48087316751480102539e-02) (34, 1.95721313357353210449e-02) (35, -7.61924088001251220703e-02) (36, -6.50546029210090637207e-02) (37, -5.85650838911533355713e-02) (38, 1.02571114897727966309e-01) (39, 6.90618753433227539062e-02) (40, -2.50477865338325500488e-02) (41, -2.11040526628494262695e-02) (42, 1.12720549106597900391e-01) (43, -7.72206634283065795898e-02) (44, 4.46508529421407729387e-05) (45, 2.70037740468978881836e-01) (46, 1.55022352933883666992e-01) (47, 7.24849775433540344238e-02) (48, -3.36272944696247577667e-03) (49, 7.93846771121025085449e-02) (50, -4.34030126780271530151e-03) (0, 4.03245508670806884766e-01) (1, 2.40937247872352600098e-01) (2, 3.09739232063293457031e-01) (3, 2.01625138521194458008e-01) (4, 3.62829089164733886719e-01) (5, 1.84154242277145385742e-01) (6, 3.19343328475952148438e-01) (7, 3.53547245264053344727e-01) (8, 3.17234516143798828125e-01) (9, 1.85476779937744140625e-01) (10, 1.72347098588943481445e-01) (11, 1.86942830681800842285e-01) (12, 2.70560860633850097656e-01) (13, 2.20876663923263549805e-01) (14, 3.03492844104766845703e-01) (15, 2.87695705890655517578e-01) (16, 2.40642771124839782715e-01) (17, 3.33776205778121948242e-01) (18, 2.91485875844955444336e-01) (19, 1.90489158034324645996e-01) (20, 2.04742655158042907715e-01) (21, 3.59549552202224731445e-01) (22, 3.79753500223159790039e-01) (23, 2.14762091636657714844e-01) (24, 2.47504711151123046875e-01) (25, 3.76155197620391845703e-01) (26, 2.99023270606994628906e-01) (27, 2.56476968526840209961e-01) (28, 2.57112771272659301758e-01) (29, 2.94989138841629028320e-01) (30, 2.26791277527809143066e-01) (31, 1.80923298001289367676e-01) (32, 3.51957023143768310547e-01) (33, 3.17081093788146972656e-01) (34, 1.93142175674438476562e-01) (35, 3.46542954444885253906e-01) (36, 3.35744768381118774414e-01) (37, 3.59192252159118652344e-01) (38, 3.30611377954483032227e-01) (39, 2.73168891668319702148e-01) (40, 1.77766099572181701660e-01) (41, 3.34830313920974731445e-01) (42, 2.97258347272872924805e-01) (43, 2.83014714717864990234e-01) (44, 1.93768605589866638184e-01) (45, 2.16869115829467773438e-01) (46, 2.04820424318313598633e-01) (47, 2.55645781755447387695e-01) (48, 1.78529411554336547852e-01) (49, 3.06604057550430297852e-01) (50, 2.64147996902465820312e-01) (0, -5.55222213268280029297e-01) (1, -1.98277309536933898926e-02) (2, -8.45451131463050842285e-02) (3, -6.35702386498451232910e-02) (4, 8.02414491772651672363e-02) (5, -1.58363580703735351562e-02) (6, 3.07337045669555664062e-02) (7, -8.55600833892822265625e-02) (8, 2.02851928770542144775e-02) (9, -4.02949796989560127258e-03) (10, 3.63271986134350299835e-03) (11, 3.95966209471225738525e-02) (12, -2.54750344902276992798e-02) (13, -3.86455096304416656494e-02) (14, 7.53409788012504577637e-02) (15, -8.63211527466773986816e-02) (16, -1.07903629541397094727e-01) (17, 7.76115655899047851562e-02) (18, -8.71613174676895141602e-02) (19, 1.62456906400620937347e-03) (20, -1.91253870725631713867e-01) (21, 1.19681805372238159180e-02) (22, -1.50810211896896362305e-01) (23, 1.35945096611976623535e-01) (24, 3.83416086435317993164e-01) (25, 3.04746627807617187500e-01) (26, 2.17907473444938659668e-01) (27, 3.17154452204704284668e-02) (28, -3.90866585075855255127e-02) (29, -5.40558025240898132324e-02) (30, 1.22392736375331878662e-02) (31, -6.39146745204925537109e-01) (32, -3.00052762031555175781e-02) (33, -5.72050750255584716797e-01) (34, 3.41978460550308227539e-01) (35, 4.69686478376388549805e-01) (36, 4.24952894449234008789e-01) (37, 3.26525539159774780273e-01) (38, 3.23417425155639648438e-01) (39, 3.89873266220092773438e-01) (40, 3.42890262603759765625e-01) (41, 4.46000248193740844727e-01) (42, 3.48234266042709350586e-01) (43, 4.23770159482955932617e-01) (44, 5.52987039089202880859e-01) (45, 5.54320871829986572266e-01) (46, 6.75944745540618896484e-01) (47, 5.09650051593780517578e-01) (48, 4.96856361627578735352e-01) (49, 9.24664080142974853516e-01) (50, -1.08433961868286132812e-01) (0, 1.05345211923122406006e-01) (1, 3.02481889724731445312e-01) (2, 3.74835014343261718750e-01) (3, 2.69134074449539184570e-01) (4, 2.26544663310050964355e-01) (5, 1.49291291832923889160e-01) (6, 2.02415123581886291504e-01) (7, 1.11580662429332733154e-01) (8, 2.61094421148300170898e-01) (9, 9.82501357793807983398e-02) (10, 2.69233793020248413086e-01) (11, 1.82141244411468505859e-01) (12, 9.62761417031288146973e-02) (13, 1.06391854584217071533e-01) (14, 1.58478274941444396973e-01) (15, 2.70583003759384155273e-01) (16, 2.27440789341926574707e-01) (17, 1.26815423369407653809e-01) (18, 9.80716869235038757324e-02) (19, 9.19192358851432800293e-02) (20, 1.65807679295539855957e-01) (21, 2.43221417069435119629e-01) (22, 1.43638446927070617676e-01) (23, 1.10327601432800292969e-01) (24, 2.76610076427459716797e-01) (25, 2.25342631340026855469e-01) (26, 2.82983422279357910156e-01) (27, 2.72210955619812011719e-01) (28, 2.59050518274307250977e-01) (29, 2.53085196018218994141e-01) (30, 1.95346832275390625000e-01) (31, 3.00290405750274658203e-01) (32, 2.08541721105575561523e-01) (33, 1.81520298123359680176e-01) (34, 3.07792603969573974609e-01) (35, 1.85020655393600463867e-01) (36, 2.26524785161018371582e-01) (37, 1.81797981262207031250e-01) (38, 2.02952250838279724121e-01) (39, 2.38247215747833251953e-01) (40, 2.20822870731353759766e-01) (41, 1.86241358518600463867e-01) (42, 3.24006497859954833984e-01) (43, 2.38563701510429382324e-01) (44, 2.11505949497222900391e-01) (45, 2.27851271629333496094e-01) (46, 2.28090286254882812500e-01) (47, 1.72782406210899353027e-01) (48, 2.73364663124084472656e-01) (49, 2.71234154701232910156e-01) (50, 1.53723895549774169922e-01) (0, -1.59374609589576721191e-01) (1, 3.94910931587219238281e-01) (2, 1.75721704959869384766e-01) (3, 2.99701511859893798828e-01) (4, 1.94878876209259033203e-01) (5, 1.97217822074890136719e-01) (6, 1.74056529998779296875e-01) (7, 1.86671361327171325684e-01) (8, 1.71730175614356994629e-01) (9, 1.41118213534355163574e-01) (10, 2.80501395463943481445e-01) (11, 1.50170296430587768555e-01) (12, 2.35880374908447265625e-01) (13, 1.40784516930580139160e-01) (14, 9.86814349889755249023e-02) (15, 2.52705782651901245117e-01) (16, 2.42667779326438903809e-01) (17, 1.74218848347663879395e-01) (18, 3.14445316791534423828e-01) (19, 3.05333077907562255859e-01) (20, 4.29288923740386962891e-01) (21, 3.40556740760803222656e-01) (22, 5.35398781299591064453e-01) (23, 5.44231712818145751953e-01) (24, 8.83289337158203125000e-01) (25, 8.54510843753814697266e-01) (26, 8.83374810218811035156e-01) (27, 9.19097900390625000000e-01) (28, 9.64775741100311279297e-01) (29, 7.86557495594024658203e-01) (30, 7.76784658432006835938e-01) (31, 5.66316545009613037109e-01) (32, 8.65606367588043212891e-01) (33, 1.67013061046600341797e+00) (34, 1.66554033756256103516e+00) (35, 1.77183330059051513672e+00) (36, 1.61115944385528564453e+00) (37, 1.71494269371032714844e+00) (38, 1.63352453708648681641e+00) (39, 1.66060066223144531250e+00) (40, 1.73473453521728515625e+00) (41, 1.59735560417175292969e+00) (42, 1.69486939907073974609e+00) (43, 1.65696561336517333984e+00) (44, 1.61175358295440673828e+00) (45, 2.36833238601684570312e+00) (46, 2.26645636558532714844e+00) (47, 2.40535020828247070312e+00) (48, 1.56407189369201660156e+00) (49, 1.79950654506683349609e+00) (50, 5.23736894130706787109e-01) (0, 8.89975965023040771484e-01) (1, 8.78195106983184814453e-01) (2, 6.84682607650756835938e-01) (3, 9.38916921615600585938e-01) (4, 8.00845086574554443359e-01) (5, 8.30353617668151855469e-01) (6, 8.31239223480224609375e-01) (7, 9.55603659152984619141e-01) (8, 8.39437067508697509766e-01) (9, 8.24117481708526611328e-01) (10, 9.26593244075775146484e-01) (11, 8.16650032997131347656e-01) (12, 9.14674162864685058594e-01) (13, 8.55608820915222167969e-01) (14, 8.84434461593627929688e-01) (15, 9.01486992835998535156e-01) (16, 8.92345011234283447266e-01) (17, 8.88456642627716064453e-01) (18, 8.06545257568359375000e-01) (19, 8.14237773418426513672e-01) (20, 8.53552818298339843750e-01) (21, 8.38918685913085937500e-01) (22, 9.45960402488708496094e-01) (23, 9.33064162731170654297e-01) (24, 8.90856146812438964844e-01) (25, 8.75064432621002197266e-01) (26, 7.82936334609985351562e-01) (27, 8.83149445056915283203e-01) (28, 8.89908254146575927734e-01) (29, 8.60378682613372802734e-01) (30, 8.99638056755065917969e-01) (31, 8.38125169277191162109e-01) (32, 7.82473683357238769531e-01) (33, 9.02708828449249267578e-01) (34, 8.53403568267822265625e-01) (35, 8.25338423252105712891e-01) (36, 7.73829638957977294922e-01) (37, 8.76801848411560058594e-01) (38, 8.43159139156341552734e-01) (39, 8.76719892024993896484e-01) (40, 9.55828666687011718750e-01) (41, 8.01746547222137451172e-01) (42, 9.60492670536041259766e-01) (43, 9.86428081989288330078e-01) (44, 9.54840123653411865234e-01) (45, 9.16759431362152099609e-01) (46, 9.82308864593505859375e-01) (47, 9.72776174545288085938e-01) (48, 8.89444530010223388672e-01) (49, 8.46161246299743652344e-01) (50, 7.82495141029357910156e-01) (0, 4.52409029006958007812e-01) (1, 2.89745837450027465820e-01) (2, 2.39676892757415771484e-01) (3, 3.38707029819488525391e-01) (4, 2.29775056242942810059e-01) (5, 3.27671945095062255859e-01) (6, 1.77025526762008666992e-01) (7, 3.53337436914443969727e-01) (8, 2.44418576359748840332e-01) (9, 2.62800306081771850586e-01) (10, 2.90012896060943603516e-01) (11, 3.23922723531723022461e-01) (12, 2.92507141828536987305e-01) (13, 2.44931966066360473633e-01) (14, 3.80763441324234008789e-01) (15, 3.58935922384262084961e-01) (16, 2.54289358854293823242e-01) (17, 2.77592867612838745117e-01) (18, 2.01098084449768066406e-01) (19, 3.33174854516983032227e-01) (20, 2.64535427093505859375e-01) (21, 2.26228445768356323242e-01) (22, 2.82465964555740356445e-01) (23, 2.45091125369071960449e-01) (24, 1.99507743120193481445e-01) (25, 2.21992179751396179199e-01) (26, 2.10722103714942932129e-01) (27, 3.59046459197998046875e-01) (28, 2.88612902164459228516e-01) (29, 2.32563018798828125000e-01) (30, 1.76786229014396667480e-01) (31, 2.62066423892974853516e-01) (32, 3.39016735553741455078e-01) (33, 1.96676418185234069824e-01) (34, 2.11771771311759948730e-01) (35, 1.88209116458892822266e-01) (36, 3.58201384544372558594e-01) (37, 2.25040286779403686523e-01) (38, 1.81212484836578369141e-01) (39, 2.22789049148559570312e-01) (40, 3.29344213008880615234e-01) (41, 3.02947431802749633789e-01) (42, 1.81515440344810485840e-01) (43, 2.54350066184997558594e-01) (44, 1.77081182599067687988e-01) (45, 1.58814206719398498535e-01) (46, 2.46450841426849365234e-01) (47, 2.61590152978897094727e-01) (48, 2.85380482673645019531e-01) (49, 2.58160650730133056641e-01) (50, 2.12933838367462158203e-01) (0, 4.87507432699203491211e-01) (1, 3.93390148878097534180e-01) (2, 3.38308960199356079102e-01) (3, 8.97338520735502243042e-03) (4, 1.18740104138851165771e-01) (5, 1.40260741114616394043e-01) (6, 4.31556329131126403809e-02) (7, 1.07115134596824645996e-01) (8, 6.20864368975162506104e-02) (9, 1.28556102514266967773e-01) (10, 1.03720441460609436035e-01) (11, 1.56257659196853637695e-01) (12, 7.34843537211418151855e-02) (13, 1.12870447337627410889e-01) (14, -2.94554862193763256073e-03) (15, 1.09675817191600799561e-01) (16, 1.00037001073360443115e-01) (17, 6.06747232377529144287e-02) (18, 9.46294963359832763672e-02) (19, 1.40110045671463012695e-01) (20, 1.95184126496315002441e-02) (21, 4.75540868937969207764e-02) (22, -3.86522971093654632568e-02) (23, 1.04928545653820037842e-01) (24, 4.81781251728534698486e-02) (25, -2.70667374134063720703e-02) (26, 3.50856184959411621094e-02) (27, 1.90940901637077331543e-01) (28, 1.52547150850296020508e-01) (29, 1.35679781436920166016e-01) (30, -3.58690232038497924805e-01) (31, 1.63841888308525085449e-01) (32, -3.26691031455993652344e-01) (33, -2.16190189123153686523e-01) (34, -1.77058756351470947266e-01) (35, -3.70124369859695434570e-01) (36, -2.49988183379173278809e-01) (37, -3.00378084182739257812e-01) (38, -2.40377128124237060547e-01) (39, -3.55128735303878784180e-01) (40, -3.64991992712020874023e-01) (41, -3.07438343763351440430e-01) (42, -1.82662889361381530762e-01) (43, -2.69973874092102050781e-01) (44, -3.57081085443496704102e-01) (45, -3.69314104318618774414e-01) (46, -3.54338735342025756836e-01) (47, -2.43012934923171997070e-01) (48, -2.70408868789672851562e-01) (49, -1.75341412425041198730e-01) (50, 1.04636840522289276123e-01) (0, 9.24681127071380615234e-01) (1, 8.30677568912506103516e-01) (2, 8.33406388759613037109e-01) (3, 8.95747721195220947266e-01) (4, 8.87087583541870117188e-01) (5, 9.41383183002471923828e-01) (6, 8.93686950206756591797e-01) (7, 8.86714875698089599609e-01) (8, 8.46042275428771972656e-01) (9, 8.35001170635223388672e-01) (10, 9.23019051551818847656e-01) (11, 7.74499773979187011719e-01) (12, 8.64552915096282958984e-01) (13, 8.53496789932250976562e-01) (14, 7.49115347862243652344e-01) (15, 8.60078394412994384766e-01) (16, 7.86864697933197021484e-01) (17, 8.22257578372955322266e-01) (18, 7.85689175128936767578e-01) (19, 7.92357265949249267578e-01) (20, 8.16610574722290039062e-01) (21, 8.47680032253265380859e-01) (22, 7.91607558727264404297e-01) (23, 7.19020843505859375000e-01) (24, 8.66265058517456054688e-01) (25, 8.60440552234649658203e-01) (26, 8.07746589183807373047e-01) (27, 8.16215872764587402344e-01) (28, 7.81249284744262695312e-01) (29, 8.00239145755767822266e-01) (30, 8.13824057579040527344e-01) (31, 7.69895613193511962891e-01) (32, 8.76101851463317871094e-01) (33, 7.68330156803131103516e-01) (34, 9.20421659946441650391e-01) (35, 8.55414986610412597656e-01) (36, 9.51249539852142333984e-01) (37, 8.81138503551483154297e-01) (38, 8.10353934764862060547e-01) (39, 8.73530924320220947266e-01) (40, 9.71651732921600341797e-01) (41, 8.02212059497833251953e-01) (42, 9.27454471588134765625e-01) (43, 9.46035921573638916016e-01) (44, 9.52967703342437744141e-01) (45, 7.82265305519104003906e-01) (46, 8.62067162990570068359e-01) (47, 8.65092933177947998047e-01) (48, 9.33337986469268798828e-01) (49, 9.93883550167083740234e-01) (50, 8.59200954437255859375e-01) (0, 4.13466811180114746094e-01) (1, 2.93636918067932128906e-01) (2, 6.44836997985839843750e+00) (3, 7.18415156006813049316e-02) (4, 1.85313209891319274902e-01) (5, 2.93495148420333862305e-01) (6, 2.23452523350715637207e-01) (7, 1.64882391691207885742e-01) (8, 3.40520620346069335938e-01) (9, 3.23912560939788818359e-01) (10, 2.09186911582946777344e-01) (11, 3.69283944368362426758e-01) (12, 2.28707060217857360840e-01) (13, 2.01137110590934753418e-01) (14, 3.14837306737899780273e-01) (15, 3.49353343248367309570e-01) (16, 2.02542096376419067383e-01) (17, 1.88160568475723266602e-01) (18, 1.21347002685070037842e-01) (19, 2.46523320674896240234e-01) (20, 1.38484746217727661133e-01) (21, 1.28373757004737854004e-01) (22, 1.95414632558822631836e-01) (23, 2.62894511222839355469e-01) (24, 7.78956785798072814941e-02) (25, 1.82876452803611755371e-01) (26, 1.45162969827651977539e-01) (27, 1.26875683665275573730e-01) (28, 1.13424986600875854492e-01) (29, 1.28221705555915832520e-01) (30, 9.91714894771575927734e-02) (31, 1.68811216950416564941e-01) (32, 2.53726541996002197266e-01) (33, -3.27544957399368286133e-01) (34, -2.54740118980407714844e-01) (35, -3.18462282419204711914e-01) (36, -3.69922816753387451172e-01) (37, -3.16299051046371459961e-01) (38, -3.21095168590545654297e-01) (39, -4.02883231639862060547e-01) (40, -3.53128939867019653320e-01) (41, -2.49858155846595764160e-01) (42, -3.92840832471847534180e-01) (43, -2.96638786792755126953e-01) (44, -3.96974205970764160156e-01) (45, -1.77005752921104431152e-01) (46, -2.53138035535812377930e-01) (47, -2.67330437898635864258e-01) (48, -3.21450024843215942383e-01) (49, -2.48259067535400390625e-01) (50, 1.26160517334938049316e-01) (0, 8.10271203517913818359e-01) (1, 9.08305466175079345703e-01) (2, 9.82724845409393310547e-01) (3, 8.25339019298553466797e-01) (4, 9.21009957790374755859e-01) (5, 8.44582498073577880859e-01) (6, 9.02369499206542968750e-01) (7, 8.04972887039184570312e-01) (8, 9.05761837959289550781e-01) (9, 9.85436379909515380859e-01) (10, 8.20119619369506835938e-01) (11, 7.80578136444091796875e-01) (12, 9.49470937252044677734e-01) (13, 8.67372035980224609375e-01) (14, 9.00920927524566650391e-01) (15, 8.09280753135681152344e-01) (16, 8.94049942493438720703e-01) (17, 7.75820493698120117188e-01) (18, 8.84483098983764648438e-01) (19, 9.01121318340301513672e-01) (20, 8.09543311595916748047e-01) (21, 8.31518292427062988281e-01) (22, 9.25262749195098876953e-01) (23, 9.26240801811218261719e-01) (24, 8.56810510158538818359e-01) (25, 8.85526001453399658203e-01) (26, 8.19153726100921630859e-01) (27, 9.21851873397827148438e-01) (28, 9.11035537719726562500e-01) (29, 9.30126428604125976562e-01) (30, 7.78231918811798095703e-01) (31, 7.98223793506622314453e-01) (32, 9.24540758132934570312e-01) (33, 9.72206413745880126953e-01) (34, 8.83801817893981933594e-01) (35, 8.81405651569366455078e-01) (36, 8.51580917835235595703e-01) (37, 8.18417251110076904297e-01) (38, 9.02549803256988525391e-01) (39, 9.84185278415679931641e-01) (40, 8.21021378040313720703e-01) (41, 9.55682039260864257812e-01) (42, 9.90647614002227783203e-01) (43, 1.00292479991912841797e+00) (44, 8.63125562667846679688e-01) (45, 1.01372122764587402344e+00) (46, 9.21039700508117675781e-01) (47, 1.01340711116790771484e+00) (48, 9.74923133850097656250e-01) (49, 1.06580805778503417969e+00) (50, 9.13707315921783447266e-01) (0, 1.46998271346092224121e-01) (1, -2.58356928825378417969e-02) (2, -6.01873546838760375977e-03) (3, -1.10901676118373870850e-01) (4, -8.74132588505744934082e-02) (5, -1.82452797889709472656e-01) (6, -1.76438048481941223145e-01) (7, -1.01119361817836761475e-01) (8, -2.15270057320594787598e-01) (9, -1.93796798586845397949e-01) (10, -1.01772956550121307373e-01) (11, -2.21538722515106201172e-01) (12, -9.16758328676223754883e-02) (13, -1.48168951272964477539e-01) (14, -1.72374218702316284180e-01) (15, -2.43714421987533569336e-01) (16, -1.09337225556373596191e-01) (17, -1.55113637447357177734e-01) (18, -1.42919942736625671387e-01) (19, -1.47191449999809265137e-01) (20, -1.56395241618156433105e-01) (21, -2.02637374401092529297e-01) (22, -1.59052357077598571777e-01) (23, -1.64934292435646057129e-01) (24, -1.33984193205833435059e-01) (25, -2.18155488371849060059e-01) (26, -1.07523106038570404053e-01) (27, -1.44326016306877136230e-01) (28, -6.47611916065216064453e-02) (29, -1.21004372835159301758e-01) (30, -1.79651305079460144043e-01) (31, -2.53665894269943237305e-01) (32, -2.45258361101150512695e-01) (33, -2.55349844694137573242e-01) (34, -2.38975539803504943848e-01) (35, -7.79399722814559936523e-02) (36, -1.81657105684280395508e-01) (37, -1.72764226794242858887e-01) (38, -1.36156812310218811035e-01) (39, -1.30861341953277587891e-01) (40, -1.03999212384223937988e-01) (41, -1.68102920055389404297e-01) (42, -1.06394104659557342529e-01) (43, -1.44785866141319274902e-01) (44, -7.09048733115196228027e-02) (45, -1.49832308292388916016e-01) (46, 5.22240996360778808594e-02) (47, 6.31273388862609863281e-02) (48, -1.05305343866348266602e-01) (49, -1.59242078661918640137e-01) (50, -2.25782275199890136719e-01) (0, 1.11778289079666137695e-01) (1, 2.23140627145767211914e-01) (2, 2.77686476707458496094e-01) (3, 2.80906647443771362305e-01) (4, 2.71441906690597534180e-01) (5, 2.49331966042518615723e-01) (6, 1.62443682551383972168e-01) (7, 2.01701059937477111816e-01) (8, 2.57409989833831787109e-01) (9, 1.13039754331111907959e-01) (10, 2.65452951192855834961e-01) (11, 2.46789142489433288574e-01) (12, 1.05673857033252716064e-01) (13, 2.57114291191101074219e-01) (14, 2.41814941167831420898e-01) (15, 2.61713743209838867188e-01) (16, 1.26319199800491333008e-01) (17, 1.28757953643798828125e-01) (18, 1.77607998251914978027e-01) (19, 2.14144885540008544922e-01) (20, 2.46778041124343872070e-01) (21, 2.33461245894432067871e-01) (22, 1.43034502863883972168e-01) (23, 1.27635881304740905762e-01) (24, 2.06535026431083679199e-01) (25, 1.90677300095558166504e-01) (26, 2.53187268972396850586e-01) (27, 1.37930706143379211426e-01) (28, 1.21881276369094848633e-01) (29, 2.80517220497131347656e-01) (30, 1.76266595721244812012e-01) (31, 1.66415512561798095703e-01) (32, 1.73992618918418884277e-01) (33, 1.21006540954113006592e-01) (34, 3.70644658803939819336e-01) (35, 1.78339660167694091797e-01) (36, 3.50746691226959228516e-01) (37, 2.46914803981781005859e-01) (38, 3.41740906238555908203e-01) (39, 3.25125783681869506836e-01) (40, 2.78028190135955810547e-01) (41, 3.16017627716064453125e-01) (42, 2.92900294065475463867e-01) (43, 2.99340575933456420898e-01) (44, 3.05343121290206909180e-01) (45, 2.71903127431869506836e-01) (46, 2.87089973688125610352e-01) (47, 3.59784185886383056641e-01) (48, 3.25470209121704101562e-01) (49, 1.97797849774360656738e-01) (50, 2.10416555404663085938e-01) (0, 2.09255933761596679688e-01) (1, 3.34315538406372070312e-01) (2, 1.75686851143836975098e-01) (3, 3.58860164880752563477e-01) (4, 2.16564565896987915039e-01) (5, 1.93730488419532775879e-01) (6, 2.55015164613723754883e-01) (7, 2.64994233846664428711e-01) (8, 2.37195819616317749023e-01) (9, 2.50948399305343627930e-01) (10, 1.35062173008918762207e-01) (11, 2.83107727766036987305e-01) (12, 9.44394618272781372070e-02) (13, 1.43759667873382568359e-01) (14, 2.63405025005340576172e-01) (15, 1.36642575263977050781e-01) (16, 1.23937182128429412842e-01) (17, 1.54650464653968811035e-01) (18, 1.04241885244846343994e-01) (19, 2.60514795780181884766e-01) (20, 2.44994550943374633789e-01) (21, 2.51213997602462768555e-01) (22, 1.80646598339080810547e-01) (23, 1.65221154689788818359e-01) (24, 1.89151853322982788086e-01) (25, 8.07056650519371032715e-02) (26, 8.74268114566802978516e-02) (27, 1.71712353825569152832e-01) (28, 2.62729525566101074219e-01) (29, 1.42615273594856262207e-01) (30, 1.46827355027198791504e-01) (31, 2.27119997143745422363e-01) (32, 1.70347705483436584473e-01) (33, 1.84516400098800659180e-01) (34, 2.55532205104827880859e-01) (35, 3.10199439525604248047e-01) (36, 3.18109661340713500977e-01) (37, 2.12077811360359191895e-01) (38, 3.04633826017379760742e-01) (39, 2.86563336849212646484e-01) (40, 1.87356561422348022461e-01) (41, 3.40874820947647094727e-01) (42, 2.70409762859344482422e-01) (43, 1.94318532943725585938e-01) (44, 2.04472824931144714355e-01) (45, 2.81271576881408691406e-01) (46, 2.50640451908111572266e-01) (47, 2.60006040334701538086e-01) (48, 3.56580972671508789062e-01) (49, 2.89959311485290527344e-01) (50, 1.64866343140602111816e-01) (0, 4.46989685297012329102e-01) (1, 2.87511438131332397461e-01) (2, 2.02850624918937683105e-01) (3, 2.52176731824874877930e-01) (4, 2.13643759489059448242e-01) (5, 2.13872358202934265137e-01) (6, 2.82756775617599487305e-01) (7, 3.10852169990539550781e-01) (8, 3.67394655942916870117e-01) (9, 3.16500633955001831055e-01) (10, 3.60313862562179565430e-01) (11, 2.79867142438888549805e-01) (12, 3.73186737298965454102e-01) (13, 2.39760667085647583008e-01) (14, 3.99550825357437133789e-01) (15, 3.45393687486648559570e-01) (16, 2.16572895646095275879e-01) (17, 2.67895847558975219727e-01) (18, 2.93280929327011108398e-01) (19, 3.40922832489013671875e-01) (20, 2.86558419466018676758e-01) (21, 2.72561281919479370117e-01) (22, 2.51663386821746826172e-01) (23, 3.14982444047927856445e-01) (24, 3.24638336896896362305e-01) (25, 3.69272232055664062500e-01) (26, 4.00296449661254882812e-01) (27, 2.24823921918869018555e-01) (28, 3.54688704013824462891e-01) (29, 3.14103335142135620117e-01) (30, 3.06844830513000488281e-01) (31, 2.98847794532775878906e-01) (32, 1.94093242287635803223e-01) (33, 2.96597331762313842773e-01) (34, 3.67702186107635498047e-01) (35, 2.15033531188964843750e-01) (36, 3.21876347064971923828e-01) (37, 2.64605253934860229492e-01) (38, 3.43962043523788452148e-01) (39, 2.94921278953552246094e-01) (40, 2.03776076436042785645e-01) (41, 3.15736293792724609375e-01) (42, 1.90326631069183349609e-01) (43, 1.87475204467773437500e-01) (44, 3.55826228857040405273e-01) (45, 1.80175811052322387695e-01) (46, 3.46735686063766479492e-01) (47, 1.80753380060195922852e-01) (48, 2.50049322843551635742e-01) (49, 2.03345850110054016113e-01) (50, 3.39157432317733764648e-01) (0, 4.29204940795898437500e-01) (1, 1.59061223268508911133e-01) (2, 2.71696537733078002930e-01) (3, 9.49763581156730651855e-02) (4, -7.00844675302505493164e-02) (5, 3.40845175087451934814e-02) (6, -5.91126941144466400146e-02) (7, -6.01601079106330871582e-02) (8, -1.79766807705163955688e-02) (9, 8.71285498142242431641e-02) (10, 4.28649187088012695312e-02) (11, 8.28338190913200378418e-02) (12, 5.04432208836078643799e-02) (13, -6.52008578181266784668e-02) (14, 5.78921958804130554199e-02) (15, 6.93065375089645385742e-02) (16, 6.39171227812767028809e-02) (17, -4.28243726491928100586e-02) (18, 3.50748039782047271729e-02) (19, -2.52411551773548126221e-02) (20, -2.08338629454374313354e-02) (21, -1.97278056293725967407e-02) (22, -1.07061946764588356018e-02) (23, 2.30635050684213638306e-03) (24, 1.48491244763135910034e-02) (25, 4.61840666830539703369e-02) (26, 1.50512354448437690735e-02) (27, 7.97202438116073608398e-03) (28, 1.18638791143894195557e-01) (29, 6.46447762846946716309e-02) (30, -5.46088479459285736084e-02) (31, 9.54881086945533752441e-02) (32, 1.01046096533536911011e-02) (33, 1.40416026115417480469e-01) (34, 5.41921257972717285156e-01) (35, 4.17510271072387695312e-01) (36, 4.52511429786682128906e-01) (37, 3.65188181400299072266e-01) (38, 4.49050784111022949219e-01) (39, 5.30091464519500732422e-01) (40, 5.10221302509307861328e-01) (41, 3.71982246637344360352e-01) (42, 5.01292228698730468750e-01) (43, 4.53897625207901000977e-01) (44, 4.06167924404144287109e-01) (45, 4.83802586793899536133e-01) (46, 4.26153361797332763672e-01) (47, 3.77468109130859375000e-01) (48, 5.42608261108398437500e-01) (49, 3.78642469644546508789e-01) (50, 4.34568151831626892090e-02) (0, -4.17551308870315551758e-01) (1, 1.06279954314231872559e-01) (2, -1.49840980768203735352e-01) (3, 2.17897444963455200195e-03) (4, 9.79822576045989990234e-02) (5, 3.40095721185207366943e-02) (6, -1.89246684312820434570e-02) (7, -1.29680028185248374939e-02) (8, 4.79594133794307708740e-02) (9, -5.84058910608291625977e-02) (10, -1.56549718230962753296e-02) (11, -6.59145116806030273438e-02) (12, -1.20990453287959098816e-02) (13, -1.22874481603503227234e-02) (14, -9.53531116247177124023e-02) (15, -2.16724686324596405029e-02) (16, 5.50087988376617431641e-02) (17, -7.78067633509635925293e-02) (18, -6.58248662948608398438e-02) (19, -4.67698007822036743164e-01) (20, -4.29256409406661987305e-01) (21, -8.34232985973358154297e-01) (22, -7.17069506645202636719e-01) (23, -1.92919030785560607910e-01) (24, 2.56419688463211059570e-01) (25, 3.63552153110504150391e-01) (26, 2.51395791769027709961e-01) (27, 2.02903181314468383789e-01) (28, 2.65187293291091918945e-01) (29, 2.39329189062118530273e-01) (30, 1.23282052576541900635e-01) (31, -1.51815664768218994141e+00) (32, 3.21280479431152343750e-01) (33, 2.22945436835289001465e-01) (34, 3.32249909639358520508e-01) (35, 3.30977678298950195312e-01) (36, 4.28696036338806152344e-01) (37, 3.84205937385559082031e-01) (38, 4.05345916748046875000e-01) (39, 3.60231816768646240234e-01) (40, 4.42325621843338012695e-01) (41, 2.78613984584808349609e-01) (42, 3.92637580633163452148e-01) (43, 3.79485905170440673828e-01) (44, 3.93354773521423339844e-01) (45, 6.92097902297973632812e-01) (46, 6.44388556480407714844e-01) (47, 4.57970976829528808594e-01) (48, 4.05078828334808349609e-01) (49, 9.09993112087249755859e-01) (50, -9.18370544910430908203e-01) (0, -5.71922883391380310059e-02) (1, -7.57143646478652954102e-02) (2, -7.60533213615417480469e-02) (3, -2.21605896949768066406e-02) (4, 4.98148612678050994873e-03) (5, -6.92311227321624755859e-02) (6, -8.43539610505104064941e-02) (7, -7.15378597378730773926e-02) (8, -6.70696720480918884277e-02) (9, -8.89786109328269958496e-02) (10, -4.45632226765155792236e-02) (11, -3.53700877167284488678e-03) (12, 3.70902079157531261444e-03) (13, 1.11465230584144592285e-02) (14, 7.51777514815330505371e-02) (15, 6.79081007838249206543e-02) (16, -2.19432935118675231934e-02) (17, 6.06671944260597229004e-02) (18, 2.53151599317789077759e-02) (19, 6.15049675107002258301e-02) (20, 5.39675094187259674072e-02) (21, 4.95177991688251495361e-02) (22, 6.10175170004367828369e-03) (23, -7.77179077267646789551e-02) (24, -5.09364381432533264160e-02) (25, -1.08756851404905319214e-02) (26, -9.20714586973190307617e-02) (27, -1.89066566526889801025e-02) (28, -6.86609279364347457886e-03) (29, -9.35754701495170593262e-02) (30, -4.57967482507228851318e-02) (31, -1.74060165882110595703e-02) (32, -5.69698959589004516602e-02) (33, -1.20642324909567832947e-02) (34, 7.75058344006538391113e-02) (35, 6.25746026635169982910e-02) (36, 4.97998557984828948975e-02) (37, 1.20774768292903900146e-01) (38, 1.06740057468414306641e-01) (39, 8.47881734371185302734e-02) (40, -6.80918619036674499512e-02) (41, -3.13271954655647277832e-02) (42, -1.27041842788457870483e-02) (43, 3.01280189305543899536e-02) (44, 5.51997870206832885742e-02) (45, -2.54098568111658096313e-02) (46, -6.47101784124970436096e-03) (47, -5.71281090378761291504e-02) (48, -6.96708187460899353027e-02) (49, -7.40986764430999755859e-02) (50, -1.03296376764774322510e-01) (0, 1.00407135486602783203e+00) (1, 3.58717709779739379883e-01) (2, 4.72773104906082153320e-01) (3, 2.15481176972389221191e-01) (4, 1.65159761905670166016e-01) (5, 3.55050176382064819336e-01) (6, 1.33494094014167785645e-01) (7, 2.47386172413825988770e-01) (8, 2.39345312118530273438e-01) (9, 1.75857752561569213867e-01) (10, 2.87589430809020996094e-01) (11, 3.35283935070037841797e-01) (12, 1.87938243150711059570e-01) (13, 1.46125480532646179199e-01) (14, 2.54282593727111816406e-01) (15, 3.35149914026260375977e-01) (16, 2.51801759004592895508e-01) (17, 2.30239510536193847656e-01) (18, 2.67024427652359008789e-01) (19, 2.73671716451644897461e-01) (20, 3.06273967027664184570e-01) (21, 1.96119382977485656738e-01) (22, 6.40170797705650329590e-02) (23, -8.97345170378684997559e-02) (24, 3.69217209517955780029e-02) (25, -1.10432587563991546631e-01) (26, -1.35531658306717872620e-02) (27, 7.45161920785903930664e-02) (28, -3.66049222648143768311e-02) (29, 3.98267209529876708984e-02) (30, 1.25896543264389038086e-01) (31, -2.24019736051559448242e-02) (32, 2.31059156358242034912e-02) (33, 5.40596768260002136230e-02) (34, -1.66960991919040679932e-02) (35, 2.74113845080137252808e-02) (36, 4.23253104090690612793e-02) (37, 2.74072983302175998688e-03) (38, 1.17242448031902313232e-01) (39, 1.19654603302478790283e-01) (40, 1.83677822351455688477e-02) (41, 5.38444332778453826904e-02) (42, 9.64041948318481445312e-02) (43, 5.78155629336833953857e-02) (44, 9.37060192227363586426e-02) (45, 3.97472493350505828857e-02) (46, 6.61969855427742004395e-02) (47, 2.52839941531419754028e-02) (48, -4.24485430121421813965e-02) (49, 3.88036333024501800537e-02) (50, 7.09100067615509033203e-02) (0, 3.99398386478424072266e-01) (1, 2.66124635934829711914e-01) (2, 2.81429052352905273438e-01) (3, 3.07874262332916259766e-01) (4, 2.26661995053291320801e-01) (5, 3.08527529239654541016e-01) (6, 2.11916625499725341797e-01) (7, 2.01462537050247192383e-01) (8, 3.30410063266754150391e-01) (9, 3.13495844602584838867e-01) (10, 2.02202662825584411621e-01) (11, 3.65214616060256958008e-01) (12, 2.08970367908477783203e-01) (13, 3.28608572483062744141e-01) (14, 2.21410617232322692871e-01) (15, 3.13878238201141357422e-01) (16, 2.41155803203582763672e-01) (17, 2.77157217264175415039e-01) (18, 3.01044970750808715820e-01) (19, 2.46542096138000488281e-01) (20, 3.59635084867477416992e-01) (21, 2.16205358505249023438e-01) (22, 2.02900990843772888184e-01) (23, 2.88654774427413940430e-01) (24, 3.43219339847564697266e-01) (25, 2.84523814916610717773e-01) (26, 1.98946863412857055664e-01) (27, 2.19440966844558715820e-01) (28, 2.84111618995666503906e-01) (29, 2.82779842615127563477e-01) (30, 1.78359270095825195312e-01) (31, 2.09474146366119384766e-01) (32, 1.64115384221076965332e-01) (33, 2.94281244277954101562e-01) (34, 3.31064611673355102539e-01) (35, 2.17808052897453308105e-01) (36, 2.28046238422393798828e-01) (37, 1.77901506423950195312e-01) (38, 2.63087093830108642578e-01) (39, 1.93085879087448120117e-01) (40, 3.31915706396102905273e-01) (41, 2.93380111455917358398e-01) (42, 1.90374940633773803711e-01) (43, 1.73018395900726318359e-01) (44, 2.24825099110603332520e-01) (45, 2.08256348967552185059e-01) (46, 2.94135689735412597656e-01) (47, 2.91279286146163940430e-01) (48, 3.06213885545730590820e-01) (49, 2.00229957699775695801e-01) (50, 3.75678122043609619141e-01) (0, 5.76181948184967041016e-01) (1, 2.03841909766197204590e-01) (2, 1.21367834508419036865e-01) (3, 4.51790206134319305420e-02) (4, 3.11875849962234497070e-01) (5, 3.78279387950897216797e-01) (6, 3.07016879320144653320e-01) (7, 3.42465281486511230469e-01) (8, 2.74313539266586303711e-01) (9, 4.02767717838287353516e-01) (10, 3.57546925544738769531e-01) (11, 3.33345085382461547852e-01) (12, 4.17052268981933593750e-01) (13, 2.90051311254501342773e-01) (14, 3.25538545846939086914e-01) (15, 2.99713820219039916992e-01) (16, 3.68425130844116210938e-01) (17, 3.34582567214965820312e-01) (18, 3.82015883922576904297e-01) (19, 4.02733266353607177734e-01) (20, 3.15180361270904541016e-01) (21, 7.84020423889160156250e-02) (22, 1.81527122855186462402e-01) (23, 7.82369226217269897461e-02) (24, 1.49884924292564392090e-01) (25, 3.83970141410827636719e-02) (26, 1.63632202893495559692e-02) (27, 9.66680049896240234375e-02) (28, 2.05368965864181518555e-01) (29, 7.82367363572120666504e-02) (30, 9.23942103981971740723e-02) (31, 1.48750007152557373047e-01) (32, 1.56895935535430908203e-01) (33, 1.09058514237403869629e-01) (34, 1.34345591068267822266e-01) (35, 8.85014981031417846680e-03) (36, 2.27635446935892105103e-02) (37, -4.18291985988616943359e-03) (38, 8.54872316122055053711e-02) (39, 2.18247007578611373901e-02) (40, 1.51924982666969299316e-01) (41, -1.20008112862706184387e-02) (42, 1.12226113677024841309e-01) (43, 1.05835266411304473877e-01) (44, 2.21259389072656631470e-02) (45, 1.39397814869880676270e-01) (46, 1.26346394419670104980e-01) (47, 1.23734705150127410889e-01) (48, 2.68528033047914505005e-02) (49, 4.97660376131534576416e-02) (50, 1.01437374949455261230e-01) (0, 8.44798028469085693359e-01) (1, 9.08592462539672851562e-01) (2, 8.74742448329925537109e-01) (3, 9.26286339759826660156e-01) (4, 8.51795673370361328125e-01) (5, 8.41245710849761962891e-01) (6, 9.29674148559570312500e-01) (7, 9.40697073936462402344e-01) (8, 8.55572402477264404297e-01) (9, 8.17450761795043945312e-01) (10, 8.34444582462310791016e-01) (11, 7.77943789958953857422e-01) (12, 9.52706456184387207031e-01) (13, 9.09867823123931884766e-01) (14, 9.14258420467376708984e-01) (15, 9.49451923370361328125e-01) (16, 9.30752933025360107422e-01) (17, 9.35171842575073242188e-01) (18, 8.49630117416381835938e-01) (19, 7.81214177608489990234e-01) (20, 9.05062794685363769531e-01) (21, 8.64557862281799316406e-01) (22, 9.17757689952850341797e-01) (23, 8.40231180191040039062e-01) (24, 9.20747518539428710938e-01) (25, 8.98263692855834960938e-01) (26, 8.06148648262023925781e-01) (27, 8.65631997585296630859e-01) (28, 7.63177752494812011719e-01) (29, 9.01141107082366943359e-01) (30, 9.62443411350250244141e-01) (31, 8.66495013236999511719e-01) (32, 8.74959349632263183594e-01) (33, 8.58616113662719726562e-01) (34, 8.75806748867034912109e-01) (35, 9.83466565608978271484e-01) (36, 9.01111662387847900391e-01) (37, 8.35397064685821533203e-01) (38, 9.48838353157043457031e-01) (39, 8.20555448532104492188e-01) (40, 8.70138525962829589844e-01) (41, 1.01016390323638916016e+00) (42, 8.19612145423889160156e-01) (43, 8.54695737361907958984e-01) (44, 9.56926882266998291016e-01) (45, 1.06139016151428222656e+00) (46, 8.54899227619171142578e-01) (47, 9.43228304386138916016e-01) (48, 9.78899002075195312500e-01) (49, 9.63465988636016845703e-01) (50, 9.20339524745941162109e-01) (0, 3.92838597297668457031e-01) (1, 2.36782118678092956543e-01) (2, 3.49523216485977172852e-01) (3, 1.89077004790306091309e-01) (4, 2.12184101343154907227e-01) (5, 2.52229452133178710938e-01) (6, 2.56127834320068359375e-01) (7, 2.97886341810226440430e-01) (8, 2.64748305082321166992e-01) (9, 1.89103215932846069336e-01) (10, 3.15270692110061645508e-01) (11, 3.71310919523239135742e-01) (12, 2.90027260780334472656e-01) (13, 3.82789492607116699219e-01) (14, 2.43944630026817321777e-01) (15, 2.73124158382415771484e-01) (16, 3.16667526960372924805e-01) (17, 2.63929039239883422852e-01) (18, 2.25989431142807006836e-01) (19, 3.38899105787277221680e-01) (20, 3.27486515045166015625e-01) (21, 2.21862524747848510742e-01) (22, 3.23672980070114135742e-01) (23, 3.51420104503631591797e-01) (24, 3.50871473550796508789e-01) (25, 3.05840075016021728516e-01) (26, 1.89159259200096130371e-01) (27, 2.81831711530685424805e-01) (28, 2.64997690916061401367e-01) (29, 3.27078580856323242188e-01) (30, 2.36542612314224243164e-01) (31, 3.77754807472229003906e-01) (32, 1.81558594107627868652e-01) (33, 3.69031131267547607422e-01) (34, 1.79871127009391784668e-01) (35, 2.01241359114646911621e-01) (36, 2.52714693546295166016e-01) (37, 2.58149027824401855469e-01) (38, 3.42639535665512084961e-01) (39, 3.31005603075027465820e-01) (40, 2.69164860248565673828e-01) (41, 2.70082473754882812500e-01) (42, 3.14441084861755371094e-01) (43, 1.65684014558792114258e-01) (44, 2.56374716758728027344e-01) (45, 3.55067819356918334961e-01) (46, 2.61084526777267456055e-01) (47, 3.75154733657836914062e-01) (48, 2.18838810920715332031e-01) (49, 2.64735639095306396484e-01) (50, 3.07576537132263183594e-01) (0, 2.34575450420379638672e-01) (1, 2.49677374958992004395e-01) (2, 2.24583849310874938965e-01) (3, 2.85583317279815673828e-01) (4, 1.65685638785362243652e-01) (5, 2.63422608375549316406e-01) (6, 2.20346689224243164062e-01) (7, 2.56972789764404296875e-01) (8, 1.58816412091255187988e-01) (9, 1.69484123587608337402e-01) (10, 1.08169779181480407715e-01) (11, 1.41543537378311157227e-01) (12, 1.60904139280319213867e-01) (13, 8.63691195845603942871e-02) (14, 1.31483480334281921387e-01) (15, 1.66694536805152893066e-01) (16, 1.47040784358978271484e-01) (17, 2.21553251147270202637e-01) (18, 1.28294318914413452148e-01) (19, 9.14804041385650634766e-02) (20, 1.07855319976806640625e-01) (21, 2.21269264817237854004e-01) (22, 2.33634129166603088379e-01) (23, 1.12815335392951965332e-01) (24, 1.11625470221042633057e-01) (25, 2.17219874262809753418e-01) (26, 1.90777301788330078125e-01) (27, 1.01732797920703887939e-01) (28, 2.60329186916351318359e-01) (29, 8.78359600901603698730e-02) (30, 2.60676562786102294922e-01) (31, 2.80003577470779418945e-01) (32, 2.58697539567947387695e-01) (33, 1.51340946555137634277e-01) (34, 2.52277344465255737305e-01) (35, 1.47561609745025634766e-01) (36, 1.64347231388092041016e-01) (37, 1.71379238367080688477e-01) (38, 3.37067067623138427734e-01) (39, 2.43584185838699340820e-01) (40, 2.56964296102523803711e-01) (41, 3.52748334407806396484e-01) (42, 2.87631630897521972656e-01) (43, 3.28394353389739990234e-01) (44, 3.65015834569931030273e-01) (45, 3.68360936641693115234e-01) (46, 2.18553990125656127930e-01) (47, 2.38192170858383178711e-01) (48, 3.11771929264068603516e-01) (49, 2.80329793691635131836e-01) (50, 1.81969806551933288574e-01) (0, 4.18106019496917724609e-01) (1, 2.69142121076583862305e-01) (2, 2.55910933017730712891e-01) (3, 2.32591554522514343262e-01) (4, 3.06885987520217895508e-01) (5, 2.18300133943557739258e-01) (6, 3.64595264196395874023e-01) (7, 3.33747446537017822266e-01) (8, 1.99316203594207763672e-01) (9, 3.69592100381851196289e-01) (10, 3.02350670099258422852e-01) (11, 3.57832282781600952148e-01) (12, 3.14125359058380126953e-01) (13, 3.45799684524536132812e-01) (14, 2.67066240310668945312e-01) (15, 3.21979165077209472656e-01) (16, 3.56319367885589599609e-01) (17, 2.68605977296829223633e-01) (18, 3.03182750940322875977e-01) (19, 2.30434373021125793457e-01) (20, 3.48100543022155761719e-01) (21, 2.78649985790252685547e-01) (22, 3.51187199354171752930e-01) (23, 3.05513769388198852539e-01) (24, 2.72971689701080322266e-01) (25, 3.39212894439697265625e-01) (26, 3.46660614013671875000e-01) (27, 3.40828090906143188477e-01) (28, 2.71586477756500244141e-01) (29, 2.50647604465484619141e-01) (30, 2.30840370059013366699e-01) (31, 2.54300355911254882812e-01) (32, 3.02921354770660400391e-01) (33, 2.88893669843673706055e-01) (34, 2.80597835779190063477e-01) (35, 2.11041361093521118164e-01) (36, 3.15061271190643310547e-01) (37, 2.42029979825019836426e-01) (38, 3.22722166776657104492e-01) (39, 2.78559893369674682617e-01) (40, 2.16881826519966125488e-01) (41, 2.23940983414649963379e-01) (42, 1.76956593990325927734e-01) (43, 2.46548175811767578125e-01) (44, 2.85524129867553710938e-01) (45, 2.20591455698013305664e-01) (46, 1.62058755755424499512e-01) (47, 2.28152438998222351074e-01) (48, 2.69558697938919067383e-01) (49, 2.10379600524902343750e-01) (50, 3.10957819223403930664e-01) (0, 8.26812207698822021484e-01) (1, 9.38718080520629882812e-01) (2, 8.59131693840026855469e-01) (3, 9.33337688446044921875e-01) (4, 7.93325901031494140625e-01) (5, 9.19295310974121093750e-01) (6, 8.63184988498687744141e-01) (7, 9.38460886478424072266e-01) (8, 8.04174304008483886719e-01) (9, 9.33036625385284423828e-01) (10, 9.63268518447875976562e-01) (11, 8.57076048851013183594e-01) (12, 8.24976444244384765625e-01) (13, 8.41274797916412353516e-01) (14, 9.28232729434967041016e-01) (15, 8.23561847209930419922e-01) (16, 9.49086725711822509766e-01) (17, 7.88893222808837890625e-01) (18, 7.69186913967132568359e-01) (19, 8.47149312496185302734e-01) (20, 8.14542174339294433594e-01) (21, 8.22386920452117919922e-01) (22, 9.19457435607910156250e-01) (23, 7.45803475379943847656e-01) (24, 8.05151879787445068359e-01) (25, 8.22796344757080078125e-01) (26, 7.89264142513275146484e-01) (27, 9.02162969112396240234e-01) (28, 7.86190390586853027344e-01) (29, 9.10523772239685058594e-01) (30, 8.28325331211090087891e-01) (31, 8.91001999378204345703e-01) (32, 9.36193048954010009766e-01) (33, 8.99137139320373535156e-01) (34, 8.84050726890563964844e-01) (35, 9.64531540870666503906e-01) (36, 8.52434813976287841797e-01) (37, 9.79965388774871826172e-01) (38, 9.19125378131866455078e-01) (39, 8.84267568588256835938e-01) (40, 9.29457128047943115234e-01) (41, 9.15759205818176269531e-01) (42, 9.66913461685180664062e-01) (43, 9.86674487590789794922e-01) (44, 9.96476709842681884766e-01) (45, 1.01729893684387207031e+00) (46, 9.18766260147094726562e-01) (47, 1.00242853164672851562e+00) (48, 9.91103172302246093750e-01) (49, 9.48337495326995849609e-01) (50, 8.48437666893005371094e-01) (0, -7.33167290687561035156e-01) (1, 1.93491727113723754883e-02) (2, -1.06730185449123382568e-01) (3, -7.78442248702049255371e-02) (4, 8.80483910441398620605e-02) (5, 3.86407747864723205566e-02) (6, -7.37423822283744812012e-02) (7, 3.70973125100135803223e-02) (8, 2.27419752627611160278e-02) (9, -5.76441735029220581055e-02) (10, 9.15041714906692504883e-02) (11, -6.07266724109649658203e-02) (12, 6.10307492315769195557e-02) (13, -6.64236256852746009827e-03) (14, 1.06097226962447166443e-02) (15, -2.30293590575456619263e-02) (16, 1.76648702472448348999e-02) (17, -1.36277489364147186279e-02) (18, -7.22846090793609619141e-02) (19, -1.68340787291526794434e-01) (20, -2.75705903768539428711e-01) (21, -1.36699944734573364258e-01) (22, 9.58988070487976074219e-02) (23, 9.18145254254341125488e-02) (24, 2.59101450443267822266e-01) (25, 2.36718490719795227051e-01) (26, 1.30918011069297790527e-01) (27, 1.56458422541618347168e-01) (28, 1.06747500598430633545e-01) (29, 1.28331631422042846680e-01) (30, 2.30427369475364685059e-01) (31, -6.22543871402740478516e-01) (32, 2.73892968893051147461e-01) (33, 2.02111750841140747070e-01) (34, 4.36705976724624633789e-01) (35, 3.38152498006820678711e-01) (36, 4.95338678359985351562e-01) (37, 3.11770498752593994141e-01) (38, 4.73659098148345947266e-01) (39, 4.56690162420272827148e-01) (40, 3.55662196874618530273e-01) (41, 4.75980848073959350586e-01) (42, 3.18213999271392822266e-01) (43, 3.25179845094680786133e-01) (44, 4.22882646322250366211e-01) (45, 5.26218056678771972656e-01) (46, 6.40235722064971923828e-01) (47, 6.99129402637481689453e-01) (48, 4.98152524232864379883e-01) (49, 9.03534710407257080078e-01) (50, -1.92708615213632583618e-02) (0, 2.86540329456329345703e-01) (1, 2.69073992967605590820e-01) (2, 3.35726112127304077148e-01) (3, 2.40438386797904968262e-01) (4, 3.72526884078979492188e-01) (5, 2.35882297158241271973e-01) (6, 2.81480550765991210938e-01) (7, 2.52165973186492919922e-01) (8, 2.88142681121826171875e-01) (9, 3.61522197723388671875e-01) (10, 2.57691442966461181641e-01) (11, 2.06891670823097229004e-01) (12, 2.24140852689743041992e-01) (13, 3.34693372249603271484e-01) (14, 3.74936014413833618164e-01) (15, 2.65791207551956176758e-01) (16, 3.09556514024734497070e-01) (17, 4.02432948350906372070e-01) (18, 2.59850591421127319336e-01) (19, 2.68142044544219970703e-01) (20, 2.65711367130279541016e-01) (21, 2.23468452692031860352e-01) (22, 2.72023916244506835938e-01) (23, 2.96503961086273193359e-01) (24, 2.87923455238342285156e-01) (25, 4.17361110448837280273e-01) (26, 4.03791695833206176758e-01) (27, 2.67398715019226074219e-01) (28, 2.50337451696395874023e-01) (29, 3.40570330619812011719e-01) (30, 2.44169220328330993652e-01) (31, 2.97832161188125610352e-01) (32, 3.94948393106460571289e-01) (33, 3.85908722877502441406e-01) (34, 3.37515503168106079102e-01) (35, 3.75384360551834106445e-01) (36, 2.31888279318809509277e-01) (37, 2.17504635453224182129e-01) (38, 2.44734227657318115234e-01) (39, 3.26190978288650512695e-01) (40, 3.86842280626296997070e-01) (41, 2.97108262777328491211e-01) (42, 3.35904508829116821289e-01) (43, 2.09575191140174865723e-01) (44, 1.31725788116455078125e-01) (45, 2.17849239706993103027e-01) (46, 1.82118877768516540527e-01) (47, 2.16426938772201538086e-01) (48, 1.89847573637962341309e-01) (49, 2.16198995709419250488e-01) (50, 3.63787561655044555664e-01) (0, 8.81260216236114501953e-01) (1, 8.74919891357421875000e-01) (2, 7.53891170024871826172e-01) (3, 9.52454090118408203125e-01) (4, 9.04742777347564697266e-01) (5, 7.22245514392852783203e-01) (6, 9.08797204494476318359e-01) (7, 7.66022324562072753906e-01) (8, 7.81617164611816406250e-01) (9, 8.66752266883850097656e-01) (10, 8.00205290317535400391e-01) (11, 8.68668198585510253906e-01) (12, 8.33719015121459960938e-01) (13, 7.66217172145843505859e-01) (14, 7.95103669166564941406e-01) (15, 7.96477675437927246094e-01) (16, 7.90591061115264892578e-01) (17, 8.16179096698760986328e-01) (18, 8.29635739326477050781e-01) (19, 7.03749418258666992188e-01) (20, 7.99075543880462646484e-01) (21, 7.33919739723205566406e-01) (22, 8.48799347877502441406e-01) (23, 8.11076879501342773438e-01) (24, 7.45878756046295166016e-01) (25, 7.43925929069519042969e-01) (26, 6.90743565559387207031e-01) (27, 8.53055417537689208984e-01) (28, 8.38607668876647949219e-01) (29, 8.08521032333374023438e-01) (30, 8.23281943798065185547e-01) (31, 7.87597060203552246094e-01) (32, 7.44389176368713378906e-01) (33, 8.39263617992401123047e-01) (34, 7.95145869255065917969e-01) (35, 7.25774765014648437500e-01) (36, 8.36485803127288818359e-01) (37, 7.77430951595306396484e-01) (38, 7.64513194561004638672e-01) (39, 9.00041639804840087891e-01) (40, 9.15226459503173828125e-01) (41, 8.47675919532775878906e-01) (42, 8.53564083576202392578e-01) (43, 8.24037015438079833984e-01) (44, 9.31208252906799316406e-01) (45, 7.75026619434356689453e-01) (46, 9.31716322898864746094e-01) (47, 8.18806409835815429688e-01) (48, 8.82889389991760253906e-01) (49, 9.25627768039703369141e-01) (50, 7.98664569854736328125e-01) (0, 2.86251455545425415039e-01) (1, 3.33701461553573608398e-01) (2, 2.11376041173934936523e-01) (3, 3.39639514684677124023e-01) (4, 2.00692251324653625488e-01) (5, 2.80646562576293945312e-01) (6, 3.41739177703857421875e-01) (7, 3.47529709339141845703e-01) (8, 2.08517521619796752930e-01) (9, 2.46672719717025756836e-01) (10, 2.75833159685134887695e-01) (11, 2.99596875905990600586e-01) (12, 2.87784963846206665039e-01) (13, 2.19007730484008789062e-01) (14, 1.94182842969894409180e-01) (15, 3.17175149917602539062e-01) (16, 3.55232954025268554688e-01) (17, 2.48937726020812988281e-01) (18, 3.77159565687179565430e-01) (19, 3.51824581623077392578e-01) (20, 2.41206437349319458008e-01) (21, 3.03639858961105346680e-01) (22, 2.79805481433868408203e-01) (23, 3.44239324331283569336e-01) (24, 2.84856379032135009766e-01) (25, 2.99597531557083129883e-01) (26, 3.29135119915008544922e-01) (27, 3.67083281278610229492e-01) (28, 2.35891669988632202148e-01) (29, 2.50719487667083740234e-01) (30, 2.50025451183319091797e-01) (31, 2.80777931213378906250e-01) (32, 2.09827199578285217285e-01) (33, 3.00150305032730102539e-01) (34, 2.44043081998825073242e-01) (35, 2.38664612174034118652e-01) (36, 2.14698106050491333008e-01) (37, 2.27588519454002380371e-01) (38, 2.35126048326492309570e-01) (39, 2.60138988494873046875e-01) (40, 3.17915678024291992188e-01) (41, 3.44260245561599731445e-01) (42, 1.98878273367881774902e-01) (43, 2.19413474202156066895e-01) (44, 1.72413513064384460449e-01) (45, 1.88603863120079040527e-01) (46, 1.70550048351287841797e-01) (47, 1.52043163776397705078e-01) (48, 2.62416034936904907227e-01) (49, 1.57526180148124694824e-01) (50, 3.48765492439270019531e-01) (0, 9.19950664043426513672e-01) (1, 8.89111101627349853516e-01) (2, 8.10070574283599853516e-01) (3, 8.36884796619415283203e-01) (4, 7.60123848915100097656e-01) (5, 8.99545967578887939453e-01) (6, 7.93659448623657226562e-01) (7, 7.53356933593750000000e-01) (8, 7.69399881362915039062e-01) (9, 8.85472238063812255859e-01) (10, 8.23840141296386718750e-01) (11, 8.65859329700469970703e-01) (12, 9.14354920387268066406e-01) (13, 7.42163777351379394531e-01) (14, 7.37705349922180175781e-01) (15, 7.82679319381713867188e-01) (16, 7.92298853397369384766e-01) (17, 8.12591016292572021484e-01) (18, 8.36667180061340332031e-01) (19, 8.74460458755493164062e-01) (20, 7.54388391971588134766e-01) (21, 8.30761849880218505859e-01) (22, 7.19963014125823974609e-01) (23, 8.38894605636596679688e-01) (24, 8.60259175300598144531e-01) (25, 7.69927978515625000000e-01) (26, 8.80196690559387207031e-01) (27, 8.72955203056335449219e-01) (28, 7.04595983028411865234e-01) (29, 7.08069562911987304688e-01) (30, 8.60637784004211425781e-01) (31, 8.95598709583282470703e-01) (32, 8.59292328357696533203e-01) (33, 7.28781282901763916016e-01) (34, 8.31014215946197509766e-01) (35, 8.95649433135986328125e-01) (36, 9.02296781539916992188e-01) (37, 8.98762762546539306641e-01) (38, 7.23861038684844970703e-01) (39, 7.55074024200439453125e-01) (40, 8.57296049594879150391e-01) (41, 8.34114134311676025391e-01) (42, 9.08757328987121582031e-01) (43, 8.55637490749359130859e-01) (44, 8.72186183929443359375e-01) (45, 7.71379828453063964844e-01) (46, 7.49831199645996093750e-01) (47, 8.43524873256683349609e-01) (48, 9.40888941287994384766e-01) (49, 9.08155798912048339844e-01) (50, 7.25378751754760742188e-01) (0, 1.42714667320251464844e+00) (1, 7.41629421710968017578e-01) (2, 7.31364898681640625000e+01) (3, 5.59807717800140380859e-01) (4, 7.47552871704101562500e-01) (5, 6.98586368560791015625e+00) (6, 1.81938111782073974609e+00) (7, 4.59298629760742187500e+01) (8, 5.57933270931243896484e-01) (9, 6.18375539779663085938e-01) (10, 4.94601488113403320312e-01) (11, 4.18495597839355468750e+01) (12, 5.67939341068267822266e-01) (13, 3.66063892841339111328e-01) (14, 6.82234191894531250000e+01) (15, 1.56449707031250000000e+02) (16, 1.11945402622222900391e+00) (17, 2.92923474311828613281e+00) (18, 4.65877622365951538086e-01) (19, 6.27400338649749755859e-01) (20, 1.57527971267700195312e+00) (21, 3.54527473449707031250e+00) (22, 7.02202379703521728516e-01) (23, 3.50098997354507446289e-01) (24, 3.63404393196105957031e-01) (25, 2.78250485658645629883e-01) (26, 3.13528329133987426758e-01) (27, 4.09452408552169799805e-01) (28, 4.27776873111724853516e-01) (29, 2.87809908390045166016e-01) (30, 2.44473665952682495117e-01) (31, 4.73356306552886962891e-01) (32, 3.23466718196868896484e-01) (33, 2.05181837081909179688e-01) (34, 2.75155037641525268555e-01) (35, 1.34670346975326538086e-01) (36, 1.15514017641544342041e-01) (37, 2.30090111494064331055e-01) (38, 1.89266309142112731934e-01) (39, 2.62786060571670532227e-01) (40, 1.83403179049491882324e-01) (41, 2.02164441347122192383e-01) (42, 1.99536457657814025879e-01) (43, 2.80812203884124755859e-01) (44, 1.90853044390678405762e-01) (45, 1.07427947223186492920e-01) (46, 3.59452664852142333984e-02) (47, 1.21532991528511047363e-01) (48, 1.66110113263130187988e-01) (49, -1.76855102181434631348e-02) (50, 5.22356092929840087891e-01) (0, 2.58561968803405761719e-01) (1, 2.08661824464797973633e-01) (2, 1.09150655567646026611e-01) (3, 2.35881537199020385742e-01) (4, 1.51998758316040039062e-01) (5, 1.53651356697082519531e-01) (6, 1.05178602039813995361e-01) (7, 1.34878441691398620605e-01) (8, 1.41617774963378906250e-01) (9, 1.54121398925781250000e-01) (10, 1.28792032599449157715e-01) (11, 1.40353113412857055664e-01) (12, 8.49262475967407226562e-02) (13, 1.66063994169235229492e-01) (14, 4.87103313207626342773e-02) (15, 8.38311165571212768555e-02) (16, 1.82042390108108520508e-01) (17, 1.74685478210449218750e-01) (18, 1.57603532075881958008e-01) (19, 1.29555404186248779297e-01) (20, 2.30589300394058227539e-01) (21, 2.50120848417282104492e-01) (22, 2.07555204629898071289e-01) (23, 1.73931658267974853516e-01) (24, 1.32879331707954406738e-01) (25, 1.03502243757247924805e-01) (26, 2.19920426607131958008e-01) (27, 6.63110688328742980957e-02) (28, 2.41472840309143066406e-01) (29, 1.59874022006988525391e-01) (30, 2.44344368577003479004e-01) (31, 1.18988819420337677002e-01) (32, -3.97224992513656616211e-01) (33, -4.18264329433441162109e-01) (34, -4.17620956897735595703e-01) (35, -3.25040400028228759766e-01) (36, -3.59058260917663574219e-01) (37, -3.83312046527862548828e-01) (38, -2.68424600362777709961e-01) (39, -2.84500241279602050781e-01) (40, -3.07822734117507934570e-01) (41, -4.11003798246383666992e-01) (42, -4.26972389221191406250e-01) (43, -2.93751478195190429688e-01) (44, -2.95466899871826171875e-01) (45, -4.49885219335556030273e-01) (46, -2.71572142839431762695e-01) (47, -3.87425154447555541992e-01) (48, -3.22401493787765502930e-01) (49, -3.99363607168197631836e-01) (50, 1.77750974893569946289e-01) (0, 3.45341891050338745117e-01) (1, 2.17623531818389892578e-01) (2, 2.41994142532348632812e-01) (3, 3.64478766918182373047e-01) (4, 3.10482829809188842773e-01) (5, 2.98224925994873046875e-01) (6, 3.43299150466918945312e-01) (7, 3.10314267873764038086e-01) (8, 2.66996920108795166016e-01) (9, 2.30726346373558044434e-01) (10, 3.01032364368438720703e-01) (11, 3.33874821662902832031e-01) (12, 2.82534033060073852539e-01) (13, 3.28224271535873413086e-01) (14, 3.60583573579788208008e-01) (15, 2.06594765186309814453e-01) (16, 2.16102093458175659180e-01) (17, 2.04119548201560974121e-01) (18, 3.84697735309600830078e-01) (19, 3.81206899881362915039e-01) (20, 3.30112457275390625000e-01) (21, 4.00547057390213012695e-01) (22, 3.83347809314727783203e-01) (23, 2.73057699203491210938e-01) (24, 3.37842762470245361328e-01) (25, 3.95408332347869873047e-01) (26, 2.30706334114074707031e-01) (27, 3.86323660612106323242e-01) (28, 2.96204179525375366211e-01) (29, 2.80905902385711669922e-01) (30, 2.80033379793167114258e-01) (31, 3.54924321174621582031e-01) (32, 3.13009649515151977539e-01) (33, 3.28823953866958618164e-01) (34, 3.37001770734786987305e-01) (35, 2.34131306409835815430e-01) (36, 2.37867221236228942871e-01) (37, 2.69732326269149780273e-01) (38, 3.36572825908660888672e-01) (39, 2.88940161466598510742e-01) (40, 3.23699802160263061523e-01) (41, 2.52622514963150024414e-01) (42, 2.59750485420227050781e-01) (43, 2.20073893666267395020e-01) (44, 1.76867157220840454102e-01) (45, 1.87110498547554016113e-01) (46, 2.32243284583091735840e-01) (47, 1.98529407382011413574e-01) (48, 1.88185811042785644531e-01) (49, 1.80867567658424377441e-01) (50, 3.96520525217056274414e-01) (0, 2.09470391273498535156e-01) (1, 1.61052837967872619629e-01) (2, 2.99113214015960693359e-01) (3, 3.32781106233596801758e-01) (4, 2.14051350951194763184e-01) (5, 2.13095068931579589844e-01) (6, 8.29759091138839721680e-02) (7, 1.97183668613433837891e-01) (8, 1.13644570112228393555e-01) (9, 1.72591105103492736816e-01) (10, 2.63297796249389648438e-01) (11, 2.47133702039718627930e-01) (12, 2.68914788961410522461e-01) (13, 1.74476429820060729980e-01) (14, 1.72153532505035400391e-01) (15, 8.09562057256698608398e-02) (16, 1.95348829030990600586e-01) (17, 7.36336857080459594727e-02) (18, 2.42618173360824584961e-01) (19, 1.06100328266620635986e-01) (20, 2.22464948892593383789e-01) (21, 1.19095735251903533936e-01) (22, 1.71973675489425659180e-01) (23, 7.35189616680145263672e-02) (24, 1.36338040232658386230e-01) (25, 2.14213848114013671875e-01) (26, 1.50618150830268859863e-01) (27, 1.74818038940429687500e-01) (28, 2.34563842415809631348e-01) (29, 1.84051841497421264648e-01) (30, 1.63499176502227783203e-01) (31, 1.76438182592391967773e-01) (32, 2.15053707361221313477e-01) (33, 1.29567727446556091309e-01) (34, 2.33871117234230041504e-01) (35, 1.62438049912452697754e-01) (36, 3.23450416326522827148e-01) (37, 2.30685189366340637207e-01) (38, 3.23041647672653198242e-01) (39, 3.55869412422180175781e-01) (40, 3.21810603141784667969e-01) (41, 2.95947939157485961914e-01) (42, 3.23434144258499145508e-01) (43, 3.06843847036361694336e-01) (44, 2.01051190495491027832e-01) (45, 2.32140943408012390137e-01) (46, 3.14459145069122314453e-01) (47, 3.24713170528411865234e-01) (48, 2.32222646474838256836e-01) (49, 2.90171802043914794922e-01) (50, 2.67153829336166381836e-01) (0, 2.19685479998588562012e-01) (1, 4.71471667289733886719e-01) (2, 3.96701365709304809570e-01) (3, 2.17177093029022216797e-01) (4, -1.35070547461509704590e-01) (5, -1.41447693109512329102e-01) (6, -7.38754719495773315430e-02) (7, -4.17003184556961059570e-02) (8, -3.38661223649978637695e-02) (9, 2.57873889058828353882e-02) (10, 2.13940478861331939697e-02) (11, -1.30967855453491210938e-01) (12, -7.64075592160224914551e-02) (13, -1.59601688385009765625e-01) (14, -8.49254354834556579590e-02) (15, -5.07858842611312866211e-02) (16, -3.36084514856338500977e-03) (17, -6.30018301308155059814e-03) (18, -9.85217317938804626465e-02) (19, -3.65977920591831207275e-02) (20, -7.52019956707954406738e-02) (21, -1.74011096358299255371e-01) (22, -8.39225873351097106934e-02) (23, -1.45318254828453063965e-01) (24, -6.06175482273101806641e-01) (25, -4.90145117044448852539e-01) (26, -4.61127638816833496094e-01) (27, -4.57238644361495971680e-01) (28, -6.27301752567291259766e-01) (29, -5.40578484535217285156e-01) (30, -4.46245938539505004883e-01) (31, -6.10306441783905029297e-01) (32, -5.62353312969207763672e-01) (33, -5.52172362804412841797e-01) (34, -5.54007291793823242188e-01) (35, -5.29736757278442382812e-01) (36, -5.14382302761077880859e-01) (37, -4.67473417520523071289e-01) (38, -4.00078445672988891602e-01) (39, -3.42938154935836791992e-01) (40, -4.40679818391799926758e-01) (41, -3.74849796295166015625e-01) (42, -3.13744813203811645508e-01) (43, -4.00148004293441772461e-01) (44, -4.15592551231384277344e-01) (45, -2.15943083167076110840e-01) (46, -2.86536306142807006836e-01) (47, -2.55720853805541992188e-01) (48, -2.62356400489807128906e-01) (49, -4.03184145689010620117e-01) (50, -6.45756199955940246582e-02) (0, -5.64516723155975341797e-01) (1, -5.03535568714141845703e-01) (2, -5.23933291435241699219e-01) (3, -4.16830480098724365234e-01) (4, -2.18502312898635864258e-01) (5, -1.13418139517307281494e-01) (6, -1.80624708533287048340e-01) (7, -4.72400873899459838867e-01) (8, -3.35421830415725708008e-01) (9, -6.47338405251502990723e-02) (10, -2.94074803590774536133e-01) (11, -7.28547722101211547852e-02) (12, -2.03982457518577575684e-01) (13, -1.56164705753326416016e-01) (14, -2.23635286092758178711e-01) (15, -1.27907410264015197754e-01) (16, -2.57114559412002563477e-01) (17, -2.62176156044006347656e-01) (18, -1.00334599614143371582e-01) (19, -8.16152617335319519043e-02) (20, -2.26382277905941009521e-02) (21, 2.31868494302034378052e-03) (22, 2.69578155130147933960e-02) (23, -9.56024229526519775391e-03) (24, 2.10498999804258346558e-02) (25, 3.39679569005966186523e-02) (26, -6.45295679569244384766e-02) (27, -2.27911621332168579102e-02) (28, -1.35930040851235389709e-02) (29, -5.66367991268634796143e-02) (30, -7.36595615744590759277e-02) (31, -1.42064556479454040527e-01) (32, -7.93990492820739746094e-03) (33, -8.57715383172035217285e-02) (34, -5.52583020180463790894e-03) (35, 4.03024442493915557861e-02) (36, 7.90711641311645507812e-02) (37, 6.77313357591629028320e-02) (38, 6.99572190642356872559e-02) (39, 4.93363477289676666260e-02) (40, 5.08606247603893280029e-02) (41, -1.09421432018280029297e-01) (42, 3.22619862854480743408e-02) (43, -3.63290198147296905518e-02) (44, 1.96294728666543960571e-02) (45, -4.19991351664066314697e-02) (46, 1.12815976142883300781e-01) (47, 6.62850737571716308594e-02) (48, -7.32985585927963256836e-02) (49, 4.04223084449768066406e-01) (50, -1.47486105561256408691e-01) (0, 9.04933929443359375000e-01) (1, 8.64236652851104736328e-01) (2, 8.72795939445495605469e-01) (3, 8.81825268268585205078e-01) (4, 8.29768955707550048828e-01) (5, 9.31076586246490478516e-01) (6, 9.59086954593658447266e-01) (7, 9.68471646308898925781e-01) (8, 8.83999228477478027344e-01) (9, 8.30468654632568359375e-01) (10, 7.71645486354827880859e-01) (11, 8.34679484367370605469e-01) (12, 9.13195252418518066406e-01) (13, 7.83816397190093994141e-01) (14, 7.10406541824340820312e-01) (15, 8.52797389030456542969e-01) (16, 8.21152746677398681641e-01) (17, 9.45432722568511962891e-01) (18, 8.76972019672393798828e-01) (19, 7.63194918632507324219e-01) (20, 9.05335545539855957031e-01) (21, 8.84854197502136230469e-01) (22, 9.15732324123382568359e-01) (23, 9.14512395858764648438e-01) (24, 7.95947372913360595703e-01) (25, 9.21881318092346191406e-01) (26, 8.88276934623718261719e-01) (27, 9.24870252609252929688e-01) (28, 9.53146278858184814453e-01) (29, 8.42284381389617919922e-01) (30, 9.42050755023956298828e-01) (31, 9.17326092720031738281e-01) (32, 9.49787259101867675781e-01) (33, 9.54375386238098144531e-01) (34, 8.75407278537750244141e-01) (35, 8.21321368217468261719e-01) (36, 9.04501259326934814453e-01) (37, 8.27191174030303955078e-01) (38, 8.51376473903656005859e-01) (39, 8.51966857910156250000e-01) (40, 9.13855552673339843750e-01) (41, 8.55630278587341308594e-01) (42, 9.54955816268920898438e-01) (43, 9.41783189773559570312e-01) (44, 9.36897873878479003906e-01) (45, 9.37180638313293457031e-01) (46, 8.89293670654296875000e-01) (47, 8.35641324520111083984e-01) (48, 9.66148614883422851562e-01) (49, 8.24934124946594238281e-01) (50, 7.95994699001312255859e-01) (0, 8.53048980236053466797e-01) (1, 8.97291898727416992188e-01) (2, 7.51373350620269775391e-01) (3, 8.32553148269653320312e-01) (4, 9.07710790634155273438e-01) (5, 8.96631300449371337891e-01) (6, 7.47843265533447265625e-01) (7, 8.90995323657989501953e-01) (8, 9.05681490898132324219e-01) (9, 8.50589871406555175781e-01) (10, 8.76550316810607910156e-01) (11, 8.48207175731658935547e-01) (12, 8.07041227817535400391e-01) (13, 8.17796587944030761719e-01) (14, 8.90612065792083740234e-01) (15, 8.46604168415069580078e-01) (16, 7.57579803466796875000e-01) (17, 7.45362937450408935547e-01) (18, 8.78937482833862304688e-01) (19, 7.85697758197784423828e-01) (20, 8.76313269138336181641e-01) (21, 7.62465953826904296875e-01) (22, 7.37635552883148193359e-01) (23, 8.00491333007812500000e-01) (24, 7.15194940567016601562e-01) (25, 8.90750169754028320312e-01) (26, 8.78744900226593017578e-01) (27, 7.33214735984802246094e-01) (28, 8.45204472541809082031e-01) (29, 8.97935271263122558594e-01) (30, 7.88289248943328857422e-01) (31, 7.63771712779998779297e-01) (32, 8.42904627323150634766e-01) (33, 7.95040309429168701172e-01) (34, 8.48722398281097412109e-01) (35, 8.35336446762084960938e-01) (36, 7.66425609588623046875e-01) (37, 8.74929964542388916016e-01) (38, 7.95870304107666015625e-01) (39, 7.65506029129028320312e-01) (40, 7.82889425754547119141e-01) (41, 7.38924384117126464844e-01) (42, 8.81289184093475341797e-01) (43, 8.59497129917144775391e-01) (44, 8.60888123512268066406e-01) (45, 8.94290447235107421875e-01) (46, 8.54480743408203125000e-01) (47, 9.46176648139953613281e-01) (48, 9.73531603813171386719e-01) (49, 8.57577502727508544922e-01) (50, 7.66289889812469482422e-01) (0, 2.43842840194702148438e+00) (1, 4.39717292785644531250e-01) (2, 6.42090320587158203125e-01) (3, 3.67956131696701049805e-01) (4, 3.80418181419372558594e-01) (5, 3.44964534044265747070e-01) (6, 3.08446407318115234375e-01) (7, 4.40256446599960327148e-01) (8, 2.96923041343688964844e-01) (9, 3.07674080133438110352e-01) (10, 3.11425089836120605469e-01) (11, 3.60931634902954101562e-01) (12, 4.31557834148406982422e-01) (13, 3.85899633169174194336e-01) (14, 2.82712519168853759766e-01) (15, 3.71917903423309326172e-01) (16, 2.65943884849548339844e-01) (17, 4.25155282020568847656e-01) (18, 4.13876980543136596680e-01) (19, 2.99913793802261352539e-01) (20, 2.71135747432708740234e-01) (21, 2.32713147997856140137e-01) (22, 2.61456727981567382812e-01) (23, 3.53268265724182128906e-01) (24, 2.88902699947357177734e-01) (25, 3.57789218425750732422e-01) (26, 2.35291674733161926270e-01) (27, 2.48106047511100769043e-01) (28, 3.47161233425140380859e-01) (29, 2.92396277189254760742e-01) (30, 3.26542943716049194336e-01) (31, 3.49626183509826660156e-01) (32, 1.42755702137947082520e-01) (33, 1.55863687396049499512e-01) (34, 1.34819224476814270020e-01) (35, 7.60065540671348571777e-02) (36, 1.17163382470607757568e-01) (37, 8.88918265700340270996e-02) (38, -4.79154326021671295166e-02) (39, -2.91752070188522338867e-02) (40, -4.41516228020191192627e-02) (41, 2.73294858634471893311e-02) (42, 1.15244634449481964111e-01) (43, -7.87700060755014419556e-04) (44, 5.99962212145328521729e-02) (45, 1.99016183614730834961e-01) (46, 1.42683252692222595215e-01) (47, 9.84419435262680053711e-02) (48, 1.91335141658782958984e-01) (49, 6.42629966023378074169e-05) (50, 3.24398726224899291992e-01) (0, 8.49975496530532836914e-02) (1, 2.22786620259284973145e-01) (2, 3.05677771568298339844e-01) (3, 2.96096861362457275391e-01) (4, 1.50337800383567810059e-01) (5, 2.82813251018524169922e-01) (6, 1.41548275947570800781e-01) (7, 2.62537747621536254883e-01) (8, 2.90372282266616821289e-01) (9, 2.81245350837707519531e-01) (10, 1.90127462148666381836e-01) (11, 2.20409110188484191895e-01) (12, 1.32079362869262695312e-01) (13, 2.42938295006752014160e-01) (14, 2.58598476648330688477e-01) (15, 1.56236574053764343262e-01) (16, 2.41789713501930236816e-01) (17, 2.27681845426559448242e-01) (18, 1.50078579783439636230e-01) (19, 2.53668218851089477539e-01) (20, 2.20111280679702758789e-01) (21, 2.28626921772956848145e-01) (22, 1.92340597510337829590e-01) (23, 2.18087881803512573242e-01) (24, 2.74952203035354614258e-01) (25, 1.64949059486389160156e-01) (26, 8.17569553852081298828e-01) (27, 8.09083998203277587891e-01) (28, 7.97972619533538818359e-01) (29, 9.32283759117126464844e-01) (30, 9.65527653694152832031e-01) (31, 8.22994589805603027344e-01) (32, 8.90493333339691162109e-01) (33, 9.72583353519439697266e-01) (34, 8.38165819644927978516e-01) (35, 9.30132210254669189453e-01) (36, 9.49520111083984375000e-01) (37, 8.92923295497894287109e-01) (38, 8.69557321071624755859e-01) (39, 9.37130153179168701172e-01) (40, 8.84782075881958007812e-01) (41, 9.80036616325378417969e-01) (42, 8.65763247013092041016e-01) (43, 1.03517198562622070312e+00) (44, 1.02041804790496826172e+00) (45, 9.36944901943206787109e-01) (46, 1.07492840290069580078e+00) (47, 9.79794383049011230469e-01) (48, 1.08284127712249755859e+00) (49, 9.46651518344879150391e-01) (50, 1.51429489254951477051e-01) (0, 2.06002831459045410156e-01) (1, 3.45678865909576416016e-01) (2, 3.16452026367187500000e-01) (3, 1.68922930955886840820e-01) (4, 2.55194127559661865234e-01) (5, 1.31356105208396911621e-01) (6, 2.04205244779586791992e-01) (7, 1.14946231245994567871e-01) (8, 1.66950240731239318848e-01) (9, 1.74342676997184753418e-01) (10, 9.78622063994407653809e-02) (11, 1.88865274190902709961e-01) (12, 2.41881653666496276855e-01) (13, 2.50465422868728637695e-01) (14, 1.89636185765266418457e-01) (15, 1.45075947046279907227e-01) (16, 1.87008336186408996582e-01) (17, 7.15981498360633850098e-02) (18, 1.89222127199172973633e-01) (19, 1.07376128435134887695e-01) (20, 1.54859140515327453613e-01) (21, 1.79268047213554382324e-01) (22, 1.61879748106002807617e-01) (23, 2.64953196048736572266e-01) (24, 1.21612474322319030762e-01) (25, 2.21629932522773742676e-01) (26, 2.55629450082778930664e-01) (27, 2.02522143721580505371e-01) (28, 2.09510982036590576172e-01) (29, 1.03940777480602264404e-01) (30, 2.69328832626342773438e-01) (31, 1.37972652912139892578e-01) (32, 3.11382055282592773438e-01) (33, 2.46739760041236877441e-01) (34, 2.14847832918167114258e-01) (35, 2.82302856445312500000e-01) (36, 2.87305802106857299805e-01) (37, 1.25537917017936706543e-01) (38, 3.00570040941238403320e-01) (39, 2.10577413439750671387e-01) (40, 2.08408519625663757324e-01) (41, 3.17029178142547607422e-01) (42, 3.02922159433364868164e-01) (43, 2.07732766866683959961e-01) (44, 3.19036006927490234375e-01) (45, 2.41207525134086608887e-01) (46, 2.71907269954681396484e-01) (47, 2.37295001745223999023e-01) (48, 2.32630684971809387207e-01) (49, 2.04186424612998962402e-01) (50, 2.11430236697196960449e-01) (0, 1.26306509971618652344e+00) (1, 1.16118407249450683594e+00) (2, 1.31204748153686523438e+00) (3, 1.17328262329101562500e+00) (4, 1.29508399963378906250e+00) (5, 1.24432194232940673828e+00) (6, 1.21135079860687255859e+00) (7, 1.19382596015930175781e+00) (8, 1.13410794734954833984e+00) (9, 1.21734845638275146484e+00) (10, 1.17781770229339599609e+00) (11, 1.21392107009887695312e+00) (12, 1.22325885295867919922e+00) (13, 1.30351996421813964844e+00) (14, 1.31784152984619140625e+00) (15, 1.22216033935546875000e+00) (16, 1.30594491958618164062e+00) (17, 1.31020879745483398438e+00) (18, 1.16283249855041503906e+00) (19, 1.05713605880737304688e+00) (20, 1.11929380893707275391e+00) (21, 1.10440850257873535156e+00) (22, 1.19278359413146972656e+00) (23, 7.08095312118530273438e-01) (24, 5.76591551303863525391e-01) (25, 4.67812299728393554688e-01) (26, 4.67246264219284057617e-01) (27, 5.55850148200988769531e-01) (28, 5.91696321964263916016e-01) (29, 5.38373172283172607422e-01) (30, 3.86203616857528686523e-01) (31, 1.10918521881103515625e+00) (32, 3.62451940774917602539e-01) (33, 6.56406116485595703125e+00) (34, 1.64244155883789062500e+01) (35, 4.77342939376831054688e+00) (36, 6.65887527465820312500e+01) (37, 3.82195922851562500000e+02) (38, 3.82426879882812500000e+02) (39, 1.33018844604492187500e+02) (40, 3.82383636474609375000e+02) (41, 1.59478988647460937500e+02) (42, 3.80127868652343750000e+02) (43, 1.33201492309570312500e+02) (44, 3.90725860595703125000e+02) (45, 1.23245635986328125000e+02) (46, 4.35513534545898437500e+01) (47, 1.25194252014160156250e+02) (48, 1.36432800292968750000e+02) (49, 6.16767578125000000000e+01) (50, 7.63776242733001708984e-01) (0, 8.73159110546112060547e-01) (1, 9.20728325843811035156e-01) (2, 9.46643888950347900391e-01) (3, 8.17645847797393798828e-01) (4, 9.55998957157135009766e-01) (5, 9.38345491886138916016e-01) (6, 8.54501843452453613281e-01) (7, 8.88292074203491210938e-01) (8, 8.95332336425781250000e-01) (9, 9.69759583473205566406e-01) (10, 9.25328373908996582031e-01) (11, 7.82168865203857421875e-01) (12, 7.81731784343719482422e-01) (13, 9.46141600608825683594e-01) (14, 7.93251454830169677734e-01) (15, 7.77806401252746582031e-01) (16, 9.14884448051452636719e-01) (17, 9.34777438640594482422e-01) (18, 8.70334148406982421875e-01) (19, 9.19342994689941406250e-01) (20, 7.78837323188781738281e-01) (21, 8.29601466655731201172e-01) (22, 8.17532718181610107422e-01) (23, 9.32838618755340576172e-01) (24, 7.93430745601654052734e-01) (25, 8.88683974742889404297e-01) (26, 7.72646188735961914062e-01) (27, 9.08943176269531250000e-01) (28, 9.59605515003204345703e-01) (29, 8.73009979724884033203e-01) (30, 8.75985383987426757812e-01) (31, 8.92004430294036865234e-01) (32, 8.77959132194519042969e-01) (33, 8.28919172286987304688e-01) (34, 9.81951117515563964844e-01) (35, 8.65098178386688232422e-01) (36, 1.00358498096466064453e+00) (37, 8.62534761428833007812e-01) (38, 9.68709707260131835938e-01) (39, 9.25172507762908935547e-01) (40, 8.44456315040588378906e-01) (41, 9.25521016120910644531e-01) (42, 9.32433009147644042969e-01) (43, 8.60109031200408935547e-01) (44, 9.13335204124450683594e-01) (45, 1.04850983619689941406e+00) (46, 9.46217596530914306641e-01) (47, 9.43804144859313964844e-01) (48, 9.69615042209625244141e-01) (49, 1.09657692909240722656e+00) (50, 8.04044485092163085938e-01) (0, 2.52852350473403930664e-01) (1, 2.40268155932426452637e-01) (2, 3.22062164545059204102e-01) (3, 2.83345133066177368164e-01) (4, 2.02672451734542846680e-01) (5, 1.44728302955627441406e-01) (6, 2.83840328454971313477e-01) (7, 1.67510494589805603027e-01) (8, 1.39379248023033142090e-01) (9, 2.01996847987174987793e-01) (10, 2.64076799154281616211e-01) (11, 2.39260271191596984863e-01) (12, 2.60278403759002685547e-01) (13, 2.73116618394851684570e-01) (14, 1.84144318103790283203e-01) (15, 9.73128080368041992188e-02) (16, 2.62862592935562133789e-01) (17, 2.37889006733894348145e-01) (18, 2.46011823415756225586e-01) (19, 1.54540285468101501465e-01) (20, 2.53817558288574218750e-01) (21, 1.54593482613563537598e-01) (22, 8.03577899932861328125e-02) (23, 1.22363433241844177246e-01) (24, 9.67933088541030883789e-02) (25, 2.82648622989654541016e-01) (26, 2.05174222588539123535e-01) (27, 1.60915225744247436523e-01) (28, 2.34952256083488464355e-01) (29, 2.07234665751457214355e-01) (30, 2.16543361544609069824e-01) (31, 2.23152458667755126953e-01) (32, 3.00275743007659912109e-01) (33, 1.59175604581832885742e-01) (34, 2.45710611343383789062e-01) (35, 2.54030287265777587891e-01) (36, 2.00224563479423522949e-01) (37, 2.00096443295478820801e-01) (38, 3.27621161937713623047e-01) (39, 2.90247172117233276367e-01) (40, 3.43928456306457519531e-01) (41, 3.06364476680755615234e-01) (42, 2.32828110456466674805e-01) (43, 3.25673460960388183594e-01) (44, 2.98359900712966918945e-01) (45, 1.62644818425178527832e-01) (46, 3.42973023653030395508e-01) (47, 2.95510947704315185547e-01) (48, 3.19199264049530029297e-01) (49, 3.32993835210800170898e-01) (50, 1.38634681701660156250e-01) (0, -4.60214853286743164062e-01) (1, -4.41719204187393188477e-01) (2, -4.51428562402725219727e-01) (3, -5.09239852428436279297e-01) (4, -1.64520248770713806152e-01) (5, -4.56547439098358154297e-01) (6, -1.14853009581565856934e-01) (7, -3.57339709997177124023e-01) (8, -4.90558594465255737305e-01) (9, -4.54842150211334228516e-01) (10, -5.79659283161163330078e-01) (11, -3.96798878908157348633e-01) (12, -4.75653767585754394531e-01) (13, -4.17467564344406127930e-01) (14, -5.18630087375640869141e-01) (15, -3.96225690841674804688e-01) (16, -3.36096584796905517578e-01) (17, -4.24066632986068725586e-01) (18, -1.22970864176750183105e-01) (19, -1.33727252483367919922e-01) (20, -1.55062541365623474121e-01) (21, -1.68931320309638977051e-01) (22, -2.32640057802200317383e-01) (23, -1.75141736865043640137e-01) (24, -1.94316715002059936523e-01) (25, -2.16938719153404235840e-01) (26, 